{"layers":[{"0":{},"1":{},"2":{},"3":{},"4":{},"5":{},"6":{},"7":{},"8":{},"9":{},"10":{},"11":{},"12":{},"13":{},"14":{},"15":{},"16":{},"17":{},"18":{},"19":{},"20":{},"21":{},"22":{},"23":{},"24":{},"25":{},"26":{},"27":{},"28":{},"29":{}},{"0":{"bias":-0.08827096651923631,"weights":{"0":0.0070219027143921505,"1":-0.09808644207833828,"2":-0.07275549458740638,"3":-0.1457133418171381,"4":0.09369911908439968,"5":-0.22163945178614652,"6":-0.09867876030287509,"7":-0.17240554901626068,"8":-0.04725544799437077,"9":0.016895615310445804,"10":0.14257006156167826,"11":-0.015179945079743651,"12":-0.09464428148527625,"13":-0.013066603356896567,"14":0.014191570875104578,"15":0.10958155113569497,"16":-0.2232263065100898,"17":-0.0822925492386011,"18":0.06679648636207994,"19":-0.13934199329108635,"20":0.17268256198070656,"21":-0.16616098338455187,"22":-0.1922232745015555,"23":-0.2096873796310129,"24":-0.13746003829328068,"25":0.10294872259280781,"26":-0.20974508690120572,"27":0.051676724644220934,"28":0.0600906997313093,"29":-0.12678430476854716}},"1":{"bias":0.03568183540642863,"weights":{"0":0.08392164468247794,"1":-0.0348089154039713,"2":0.2928943515250811,"3":0.3203575273021171,"4":0.021174857324648626,"5":0.07360731027040378,"6":0.15021817118190792,"7":0.1937832385841307,"8":0.172965858555738,"9":0.19420360426784786,"10":0.2527031168759374,"11":0.08423378719635156,"12":0.15605281299977256,"13":0.19383574298510134,"14":-0.0622535786142041,"15":0.09395216942318127,"16":0.11781661056369923,"17":0.23732250697154753,"18":0.0666865176911496,"19":0.16561560208081835,"20":0.13026947122898225,"21":-0.0029338392494971505,"22":-0.0009809688383670759,"23":-0.0016539134375546224,"24":0.1872346428789974,"25":0.005137212582398593,"26":0.23747086506331536,"27":0.18156418441156635,"28":0.23980127700809656,"29":0.21059944599646724}},"2":{"bias":0.07868711333823784,"weights":{"0":-0.052160217352016536,"1":-0.10586323233528298,"2":-0.25393533502392684,"3":-0.16531637282436146,"4":-0.01708072531145677,"5":-0.21872868916220545,"6":0.0547627080953271,"7":-0.2867760233209972,"8":-0.23983764381149283,"9":0.0437876405722931,"10":-0.2564949710760059,"11":-0.16102560938595925,"12":0.053814935354521094,"13":0.06639841704165134,"14":-0.017080200408596972,"15":-0.28767329048871587,"16":-0.14215526374095377,"17":-0.25282362648070944,"18":-0.18974984264278397,"19":0.07118300943042344,"20":-0.28114303984357614,"21":-0.16421843685636467,"22":0.00016600168700210843,"23":-0.08410938059951553,"24":-0.08492747270354663,"25":-0.2876876251105208,"26":-0.11682361669899727,"27":-0.23325519206684261,"28":-0.0725676728087768,"29":-0.06480511069173331}},"3":{"bias":0.21688480472552832,"weights":{"0":0.31907857568406023,"1":0.08479284726040055,"2":0.0017154537159093483,"3":0.0934553376373723,"4":0.12000448263055827,"5":0.0660039695141821,"6":0.12794770895329446,"7":0.0821605061727682,"8":0.3116408226491074,"9":0.2721764900806807,"10":0.2842613359932904,"11":0.02695558307851035,"12":0.0800348973418765,"13":0.08354348074856877,"14":0.06969689859635955,"15":0.24915292328826372,"16":-0.053483106898967334,"17":0.022642213090105338,"18":0.17783036250756906,"19":0.006616858575367094,"20":-0.01837405057794555,"21":0.01626577361986202,"22":0.23509616669187364,"23":0.25427797323796814,"24":0.04349996689308729,"25":0.31050377420849046,"26":-0.05121786775199261,"27":0.23233438708753162,"28":0.32362040427010136,"29":-0.021911482065916532}},"4":{"bias":-0.08419750489015115,"weights":{"0":-0.0004510039720551682,"1":-0.05977733769707015,"2":0.060407022355330776,"3":0.006497471152588685,"4":0.06874052812851625,"5":-0.11435834950102637,"6":-0.03549155906803646,"7":-0.17141584391087739,"8":0.17674309735937477,"9":0.06775491067131945,"10":0.07616235829566989,"11":-0.06777244337061362,"12":0.16884943168915065,"13":-0.07268888359098485,"14":-0.0629303046407161,"15":-0.037483275084247564,"16":0.13537821420872734,"17":0.017774083550097228,"18":-0.17301768791334524,"19":-0.1648947157526838,"20":0.20292892357256154,"21":-0.028838097841018984,"22":-0.14173751050878433,"23":0.09575220191379052,"24":0.16803120078128064,"25":0.04079770152833592,"26":-0.051044221268101764,"27":0.05561234761519968,"28":0.04974806570697722,"29":-0.08469356027103579}},"5":{"bias":0.04535749221900595,"weights":{"0":-0.3287699766319657,"1":0.02449454434344278,"2":-0.08745237033836183,"3":-0.1106375648871562,"4":-0.33216900827610313,"5":-0.29170684875395947,"6":-0.18430974377490753,"7":-0.31280897485152126,"8":-0.26231533763633674,"9":-0.16467016092337297,"10":0.030218042901990108,"11":-0.2875907934648619,"12":0.028060738103547013,"13":-0.18107360347935206,"14":-0.05901403457721206,"15":-0.17885136912261376,"16":-0.12855903188193832,"17":-0.21976832124692555,"18":-0.24434490038403708,"19":0.014086500938303416,"20":-0.30188885558490147,"21":0.004347065176564502,"22":-0.2041923811903078,"23":-0.28144262457303254,"24":-0.3375168757106458,"25":-0.312529695614061,"26":-0.16324464697078744,"27":-0.3004041598409988,"28":-0.14610987026138883,"29":0.029438490024826604}},"6":{"bias":-0.03187867572370553,"weights":{"0":-0.24462491487105367,"1":-0.5075596840868631,"2":-0.48383829954361834,"3":-0.4354981281430905,"4":-0.3080333711317445,"5":-0.3581442918606146,"6":-0.23287701547423545,"7":-0.477017513501165,"8":-0.4788217384606137,"9":-0.2689758789535728,"10":-0.3005450004702831,"11":-0.5154558430010819,"12":-0.4893951048063379,"13":-0.528918886221909,"14":-0.5276242483831022,"15":-0.2037015531237628,"16":-0.20365754530415356,"17":-0.3293512515943881,"18":-0.4494012829631613,"19":-0.35305723302027575,"20":-0.26885776112075516,"21":-0.29813169245966953,"22":-0.38170153159996584,"23":-0.2862901873633159,"24":-0.21447884119846486,"25":-0.26113794081036124,"26":-0.5000949156901211,"27":-0.26304465510835606,"28":-0.39121214865533915,"29":-0.3694655605308904}},"7":{"bias":-0.061554231032030095,"weights":{"0":0.38141945623221996,"1":0.2260518907244415,"2":0.36466844330454096,"3":0.13858524391089058,"4":0.23911454503289217,"5":0.12278049955971161,"6":0.2417119950377549,"7":0.2661951042988496,"8":0.2590622263461289,"9":0.4044768383011402,"10":0.09010961047624143,"11":0.4005384450770553,"12":0.28095724562484437,"13":0.17082082627875536,"14":0.1726682634015019,"15":0.08478033191390438,"16":0.046750154808221846,"17":0.3698358271257157,"18":0.28180045929380687,"19":0.18352962950360505,"20":0.3528076398877715,"21":0.3194019871273145,"22":0.16516524221297343,"23":0.06749344178378737,"24":0.3387993422993307,"25":0.06641228739588272,"26":0.11121020558081542,"27":0.11960936078137535,"28":0.09738238933161242,"29":0.14602999127996505}},"8":{"bias":0.04288479384835474,"weights":{"0":0.23213470804064526,"1":0.3352461343772357,"2":0.2149783149355053,"3":0.381240738768515,"4":0.35592442904665855,"5":0.34905551996960077,"6":0.19016149327662055,"7":0.20978223112132294,"8":0.3201035490636222,"9":0.0846785964815443,"10":0.15192511066017228,"11":0.209724334947312,"12":0.3052255499329752,"13":0.10013704603434115,"14":0.3016090623506212,"15":0.09027500180352081,"16":0.08794876259060991,"17":0.2597986230578707,"18":0.209182703868463,"19":0.2154758957352715,"20":0.02226518249526841,"21":0.37585979980148154,"22":0.1983319228203163,"23":0.2452192719612187,"24":0.3482557681924186,"25":0.1902878119906368,"26":0.37748543027565035,"27":0.04766099759350833,"28":0.06034445311806156,"29":0.23935750185422347}},"9":{"bias":0.07413378400212303,"weights":{"0":-0.360651698540848,"1":-0.18819725676818008,"2":-0.18506307928112908,"3":-0.3758642077176483,"4":-0.14613795527481782,"5":-0.044566886623905115,"6":-0.3314112498055821,"7":-0.17510445557481055,"8":-0.2986753727242338,"9":-0.3915816879781943,"10":-0.3798419397169805,"11":-0.21383797158119286,"12":-0.06888016562215442,"13":-0.33314936410707435,"14":-0.3447355149352816,"15":-0.3543143402725478,"16":-0.02389876459612524,"17":-0.06593755849956154,"18":-0.37662859001304233,"19":-0.059485188141356914,"20":-0.13972144948225243,"21":-0.12684102385319213,"22":-0.06290195196081122,"23":-0.08345573976875374,"24":-0.1497613235536985,"25":-0.25465143413693436,"26":-0.009302735552945682,"27":-0.008235198363941166,"28":-0.07821075906484723,"29":-0.13079663012421122}},"10":{"bias":-0.08958485992720966,"weights":{"0":-0.3850919896536064,"1":-0.27377516455234,"2":-0.3082666278115552,"3":-0.34289417198018146,"4":-0.3116131374184239,"5":-0.3571240631457552,"6":-0.3062519413933734,"7":-0.24606418014561746,"8":-0.17717378369810768,"9":-0.062421295115156455,"10":-0.27050815819344703,"11":-0.21174871538545173,"12":-0.18113119996509727,"13":-0.2384340623311299,"14":-0.33373682477330385,"15":-0.38599876757163487,"16":-0.00444757975903406,"17":-0.22627767712516306,"18":-0.30055707210942956,"19":-0.27773159124401425,"20":-0.27972990276100457,"21":-0.26862777286415657,"22":-0.1338152428424357,"23":-0.29243711132494604,"24":-0.17892352902595415,"25":-0.34456999224855794,"26":-0.14160100743202708,"27":-0.3364334790504964,"28":-0.21125035211142615,"29":-0.31007682853793295}},"11":{"bias":0.2196754108762086,"weights":{"0":-0.1716841309058069,"1":-0.10550333410139201,"2":0.14303949485257314,"3":0.21306050776015456,"4":-0.10779754169526434,"5":-0.005631292895228756,"6":0.04881050645166798,"7":0.027788908357519623,"8":-0.09937554726134017,"9":0.15334057449598523,"10":0.12027752244055703,"11":0.008712217764644248,"12":-0.14658027867968199,"13":0.1513833047698031,"14":0.21376717137992143,"15":-0.007843909812407889,"16":0.057748676211553204,"17":-0.16436854382208127,"18":0.04733521008561132,"19":0.07329089136491122,"20":0.17872807596685325,"21":-0.0784740756903619,"22":-0.004636735331523085,"23":0.15277513199957635,"24":0.10212612344196031,"25":0.10317543282850664,"26":-0.06396581972318857,"27":0.09024204951257948,"28":0.1984854867244739,"29":0.08107638501000179}},"12":{"bias":0.08943797503874688,"weights":{"0":0.2921078110821467,"1":0.16440444669335616,"2":0.35172406904750503,"3":0.13343149248594288,"4":0.34519105619931106,"5":0.2987819656665408,"6":-0.0034217620617840155,"7":0.1148978090122602,"8":0.23814750142814822,"9":0.38218894837371786,"10":0.24087208206331145,"11":-0.0023694705899911296,"12":0.042552060157296956,"13":0.021968492703814787,"14":0.262325160053712,"15":0.016549039315082795,"16":0.2897372859278668,"17":0.36257712945624765,"18":-0.005779739608597529,"19":0.34273964743156404,"20":0.34851673396042177,"21":0.23355236645059424,"22":0.09584296597590893,"23":0.33580332011640485,"24":0.2972190690579219,"25":-0.017116780053413747,"26":0.06813081213115282,"27":-0.02688840936974452,"28":0.12199763075430167,"29":0.1967704856207831}},"13":{"bias":-0.02230759572663302,"weights":{"0":-0.1434876085842201,"1":-0.09726792017809241,"2":-0.28608863799675166,"3":-0.3514900099172826,"4":-0.3510267055829517,"5":-0.15632197054317956,"6":-0.43973123158371913,"7":-0.4219874921393027,"8":-0.24794691915400918,"9":-0.12558110357264227,"10":-0.34864969425536807,"11":-0.38261397229810457,"12":-0.12305272606877057,"13":-0.2990549976650857,"14":-0.2229664752065546,"15":-0.4048395061387299,"16":-0.1965086554202999,"17":-0.24036388361263894,"18":-0.30248402121319606,"19":-0.20078001203833581,"20":-0.2849607580594806,"21":-0.18039714979712637,"22":-0.14903473879237755,"23":-0.37239450303667126,"24":-0.08118004707332768,"25":-0.3306137802789552,"26":-0.3701360219478842,"27":-0.303933912725607,"28":-0.0868492240864216,"29":-0.358020475454602}},"14":{"bias":0.07507978690169519,"weights":{"0":0.27933079438151387,"1":-0.019911222503094943,"2":0.3116242836175065,"3":0.23010562015163272,"4":0.32845078165927777,"5":-0.04788150679365648,"6":-0.014449047667825139,"7":0.22372345208486705,"8":-0.03323999463594738,"9":0.016695189034073743,"10":0.31839829156980526,"11":-0.03439469615597482,"12":0.18424435761462973,"13":0.26411489922430015,"14":0.1593193191085992,"15":0.11519974277552986,"16":0.05234781149333495,"17":0.006901808462199536,"18":0.29402831039913924,"19":0.09714186878241267,"20":0.18582764199890614,"21":0.3192459784332961,"22":-0.023767583300625363,"23":0.12518453261347404,"24":0.10749524830219946,"25":0.17700217812837052,"26":0.11850788023333905,"27":0.08343730448441583,"28":0.05913461123367137,"29":0.11513259678105964}},"15":{"bias":-0.17632511834627354,"weights":{"0":-0.042278343626837,"1":-0.0485819621788787,"2":-0.046126260298143124,"3":-0.09818883297145267,"4":0.014782516034289029,"5":-0.255752221517711,"6":-0.019073864340018266,"7":-0.07854272448839125,"8":-0.20771184769661818,"9":0.06750774350486546,"10":0.06954280775084479,"11":-0.21119229534922174,"12":-0.059932514364425406,"13":-0.23640485703629047,"14":-0.1948577817102197,"15":-0.11199513948058407,"16":-0.13222177541469335,"17":0.032779776207806297,"18":-0.1455982960437194,"19":0.030403393499298215,"20":-0.11530172609455247,"21":-0.2529488725170379,"22":-0.25677047142926285,"23":-0.21721484909387018,"24":0.10329045673744362,"25":-0.09781199491845384,"26":-0.1027644279142905,"27":-0.23977738791734554,"28":-0.177547139069889,"29":0.07970747412417702}},"16":{"bias":-0.07453719352477138,"weights":{"0":0.09959876062773411,"1":0.04409435829851443,"2":0.0803372592853141,"3":-0.08931344125535133,"4":0.12934448818644861,"5":0.14032549353045362,"6":0.03929666516419864,"7":-0.010019183633404575,"8":0.08310791109638255,"9":0.09822441771470336,"10":0.14909634439589337,"11":0.25904170755454725,"12":0.04171782077858896,"13":0.17490647144177998,"14":0.17454926128321752,"15":0.25517327436287995,"16":-0.014855943133532707,"17":0.19092137983051172,"18":0.1623036620532823,"19":0.04492030682722658,"20":0.054529744021648195,"21":-0.04841164955450656,"22":0.239627264960414,"23":0.2250968359150427,"24":-0.12733943650837715,"25":0.04631018546885913,"26":0.11965753492037356,"27":-0.00358021678893646,"28":0.25270881429066827,"29":0.16509554285405265}},"17":{"bias":-0.053593098420116066,"weights":{"0":-0.13848358984470302,"1":-0.37649485430361257,"2":-0.4167027433238292,"3":-0.2225654240635812,"4":-0.2743605624028514,"5":-0.49529339578774373,"6":-0.3587901710346053,"7":-0.32485143090505264,"8":-0.4308203543152323,"9":-0.3980072614762278,"10":-0.49199774406442276,"11":-0.25407452648425016,"12":-0.14327125243426375,"13":-0.20760912585069585,"14":-0.3239385665189204,"15":-0.4953883334404561,"16":-0.32123408034987766,"17":-0.34927161921108113,"18":-0.37252844090072684,"19":-0.2834229055744758,"20":-0.35075150019194695,"21":-0.3017291768743934,"22":-0.35126476129941364,"23":-0.1657867249023561,"24":-0.1280133967785002,"25":-0.4015489876519546,"26":-0.43817383332128407,"27":-0.14266068470977805,"28":-0.4438084848069156,"29":-0.18736203698469842}},"18":{"bias":0.09693966907851864,"weights":{"0":0.2712203197064813,"1":0.1916310942850098,"2":0.23747765442358426,"3":-0.03755632837638929,"4":0.13124953521860017,"5":-0.02891250347438646,"6":-0.09154080687660665,"7":0.15121446945346784,"8":0.008527660184597233,"9":0.12835578418144658,"10":0.22194861423273246,"11":0.28057038992843614,"12":0.19653719857970153,"13":-0.05281143491967406,"14":-0.08631853479304019,"15":0.006560283437204569,"16":0.27987668596133236,"17":0.1557782940619977,"18":-0.03572810127569217,"19":0.13783168424302875,"20":0.013159950526959075,"21":0.20061549457364058,"22":0.28004709869017935,"23":-0.04770468341092267,"24":0.13408944450006313,"25":-0.09846361760291934,"26":0.2778540814452796,"27":-0.022675768792855704,"28":-0.1043157939729766,"29":0.038296020359903524}},"19":{"bias":-0.01618113129045989,"weights":{"0":0.01208985081164073,"1":-0.2905574319267234,"2":-0.2688884269270247,"3":0.07936615427831126,"4":-0.12865814600990913,"5":0.03519854455872893,"6":0.05120293370048349,"7":0.049242255397852555,"8":0.0026324451087943465,"9":-0.1229163270304337,"10":-0.22651951600849918,"11":-0.09676227841578598,"12":-0.050166200706656366,"13":-0.20762902121859575,"14":-0.03783265422266889,"15":0.03856264155120287,"16":-0.0051113336871814845,"17":-0.2864717271976198,"18":-0.09611618267138645,"19":-0.15887576683242616,"20":-0.06885962414223049,"21":-0.2749599006543819,"22":0.07893242768587114,"23":-0.05117999184643453,"24":0.05069977544378123,"25":-0.05030358008835596,"26":-0.26378136220554516,"27":-0.05321909418035586,"28":-0.2692490972874326,"29":-0.1930976826652476}},"20":{"bias":0.018496268813761558,"weights":{"0":-0.10772102811054234,"1":0.0027065151742401714,"2":-0.06553006543792475,"3":-0.2926710189785084,"4":-0.06706236509308648,"5":-0.08951297625815648,"6":-0.09851190757966928,"7":-0.22860502636206304,"8":-0.06730866332065644,"9":-0.047168873715788165,"10":-0.22471629391111933,"11":-0.03227344378603414,"12":0.03495547858409706,"13":-0.1418925255026088,"14":0.012747169191830925,"15":-0.2984501930158976,"16":-0.0015235153852574295,"17":-0.3230691706043111,"18":-0.07747893330279212,"19":-0.18173208283490375,"20":-0.27380730629658584,"21":-0.011317937963217067,"22":-0.3063887750270898,"23":-0.029162809288958473,"24":-0.23802485239132404,"25":-0.14190766661265228,"26":-0.17665539663284324,"27":-0.2850000775046794,"28":-0.035419370049749356,"29":0.04048551378366628}},"21":{"bias":0.17837140676760968,"weights":{"0":-0.08011653060349219,"1":0.09819132126155514,"2":0.06969678718265618,"3":0.10016548510747561,"4":0.003221643343467032,"5":0.026994832417414086,"6":-0.15486064735019145,"7":0.09392821648542339,"8":-0.18609794613129754,"9":0.03809101189373819,"10":0.12260946408491544,"11":-0.17490592638527164,"12":-0.09750233035901573,"13":-0.05873888558916682,"14":0.009812909851933125,"15":-0.030731425178377455,"16":0.17203400266652535,"17":-0.00836068945453438,"18":0.09687950812503943,"19":0.007145008749396184,"20":-0.05066089897026946,"21":0.17658018707173695,"22":-0.021925464208887486,"23":-0.16526398705651116,"24":0.1613470731504056,"25":0.1072017553864847,"26":-0.03020177166606277,"27":-0.16397396562448321,"28":-0.17391711025202347,"29":-0.019090122402391874}},"22":{"bias":-0.051206230599808285,"weights":{"0":-0.4099533105051056,"1":-0.5230714468857532,"2":-0.42836719095875575,"3":-0.20988274676812482,"4":-0.3805924171635149,"5":-0.48814180980022387,"6":-0.558825484509764,"7":-0.46646429750864826,"8":-0.49350134514805355,"9":-0.33317294855001756,"10":-0.3829122043893374,"11":-0.3423370566431912,"12":-0.17120155363603906,"13":-0.4792279867528759,"14":-0.2588462245626346,"15":-0.46614954667368896,"16":-0.3597929131983808,"17":-0.4078667316457883,"18":-0.40580230556590996,"19":-0.5456717894662407,"20":-0.39145287891820724,"21":-0.3160618301241092,"22":-0.2597625723216949,"23":-0.17111949854937292,"24":-0.49944916971849407,"25":-0.5120599991004358,"26":-0.44848694813661033,"27":-0.5414279637425201,"28":-0.1954143168580124,"29":-0.40327442892556287}},"23":{"bias":-0.15746411819151251,"weights":{"0":0.09055772297231869,"1":-0.000652557375195815,"2":-0.17754835863067545,"3":0.07200007344569206,"4":-0.04466098491233901,"5":-0.02603345070767423,"6":-0.25171376100588966,"7":-0.11201139474568811,"8":-0.15690384008144018,"9":0.08498737010606289,"10":-0.0189488750901554,"11":0.022561666225290745,"12":-0.12950672627660567,"13":-0.25175916897973755,"14":-0.18549610399894262,"15":0.10976641130745138,"16":-0.147096973872016,"17":-0.24448539133684535,"18":0.02661233655600074,"19":-0.2497227420772688,"20":-0.2076781500407561,"21":-0.14059551881762944,"22":-0.14996722184208608,"23":-0.10125146143422128,"24":-0.2747298053195159,"25":-0.05367853146002117,"26":-0.14821720411091546,"27":-0.2656897212458608,"28":0.0038351633156415094,"29":-0.2550447838920851}}},{"0":{"bias":-0.8533264939596775,"weights":{"0":0.07687660768572079,"1":-0.943242801904779,"2":0.47077200638336664,"3":-0.93557522509783,"4":-0.23789414726409325,"5":0.7325797837232394,"6":1.8024145294386866,"7":-1.3983709400959876,"8":-1.4355825349693687,"9":0.854114853988037,"10":1.181682403616078,"11":-0.4246768672911987,"12":-1.2411628785836961,"13":1.2309075990145641,"14":-0.9494773649861965,"15":0.344198752090071,"16":-0.7241539732074503,"17":1.5565379286319347,"18":-0.7254307263897524,"19":0.309007178944362,"20":0.4829714078850214,"21":-0.19571885026888428,"22":1.9792008020295129,"23":0.36272313715426674}}},{"0":{"bias":-2.093548968041944,"weights":{"0":-5.121482126787035}}}],"outputLookup":false,"inputLookup":false}