{"layers":[{"0":{},"1":{},"2":{},"3":{},"4":{},"5":{},"6":{},"7":{},"8":{},"9":{},"10":{},"11":{},"12":{},"13":{},"14":{},"15":{},"16":{},"17":{},"18":{},"19":{},"20":{},"21":{},"22":{},"23":{},"24":{},"25":{},"26":{},"27":{},"28":{},"29":{},"30":{},"31":{},"32":{},"33":{},"34":{},"35":{},"36":{},"37":{},"38":{},"39":{},"40":{},"41":{},"42":{},"43":{},"44":{},"45":{},"46":{},"47":{},"48":{},"49":{},"50":{},"51":{},"52":{},"53":{},"54":{},"55":{},"56":{},"57":{},"58":{},"59":{},"60":{},"61":{},"62":{},"63":{},"64":{},"65":{},"66":{},"67":{},"68":{},"69":{},"70":{},"71":{},"72":{},"73":{},"74":{},"75":{},"76":{},"77":{},"78":{},"79":{},"80":{},"81":{},"82":{},"83":{},"84":{},"85":{},"86":{},"87":{},"88":{},"89":{}},{"0":{"bias":-0.11567213667309456,"weights":{"0":0.22996582586045877,"1":0.10894809864701796,"2":0.23489688737867753,"3":-0.03910848726332417,"4":-0.052381268469556805,"5":0.2540170851004792,"6":-0.08858260645543224,"7":0.16257645345975175,"8":0.023575358669455204,"9":-0.10334979359575172,"10":-0.0014828971247703752,"11":-0.021017029776219588,"12":-0.062453251742235864,"13":0.19507071146107433,"14":0.14738700111278835,"15":0.2457975462933062,"16":0.06111190116559794,"17":0.04530549622573115,"18":0.19870928518614583,"19":0.013255220281004815,"20":0.10401236324551824,"21":-0.12585684068523487,"22":-0.13016510901094977,"23":0.005932215546526615,"24":0.18962755096670755,"25":-0.03205270433683805,"26":0.1836507116849614,"27":-0.03677304886646348,"28":0.16770848095777602,"29":0.1521041199141533,"30":0.20112389431973676,"31":0.21216132397374618,"32":0.13682882167774232,"33":-0.11071207187781487,"34":0.09410678410066751,"35":0.0499542124797321,"36":0.1912753704470439,"37":0.16942199900682975,"38":0.122729106429383,"39":0.15485466736868592,"40":0.15465252993140619,"41":0.1985793223738034,"42":0.025699568624669166,"43":-0.08446649118219009,"44":-0.14419461684879584,"45":-0.1562415570723582,"46":0.15566809634393663,"47":0.06646537184796258,"48":-0.17594735022720803,"49":-0.11569325737170029,"50":0.09816925519938503,"51":-0.14882511332621728,"52":-0.03200254433869851,"53":-0.14282420061989756,"54":0.014737137763343166,"55":-0.13524707548179618,"56":-0.04029443544922437,"57":0.07750195263205445,"58":0.10295656276332747,"59":0.12222020585877424,"60":-0.08652778600916666,"61":0.07803788835725427,"62":-0.15206565070546643,"63":-0.0915840700573132,"64":0.0967743714696941,"65":0.030195059063965128,"66":-0.10923000870239598,"67":0.06752958978831322,"68":0.12125107741779431,"69":-0.10544673516404318,"70":-0.19167150494717589,"71":0.019712214254080505,"72":0.1671579768562478,"73":0.11180389431605042,"74":0.006556476262145658,"75":0.07930677427253736,"76":-0.16035024898927758,"77":-0.0634543222688636,"78":0.04553542264702756,"79":0.05035556429255593,"80":-0.0820849404527034,"81":-0.17786167913143638,"82":-0.05837167612279587,"83":0.03518487867599132,"84":0.014887013292393622,"85":-0.11622099514813813,"86":0.15597964471768216,"87":-0.054525786185453354,"88":-0.20860839639184353,"89":0.034063524358125735}},"1":{"bias":-0.18340676657681362,"weights":{"0":-0.3078632031396332,"1":0.0016815371684252975,"2":-0.11998084786987205,"3":-0.16353878162029753,"4":-0.2184321380359721,"5":-0.006236321697617492,"6":-0.19134000142355825,"7":-0.02253298514180953,"8":-0.09207194423561892,"9":-0.2039066767397425,"10":-0.05489059677704297,"11":-0.04698657439207542,"12":-0.060092910617217374,"13":-0.19495137602566434,"14":-0.18701587504053097,"15":-0.15526809765804225,"16":0.030700665812334528,"17":-0.0719185204224165,"18":-0.26387366088567854,"19":-0.223432301833504,"20":-0.06760579269294498,"21":-0.13547494762640258,"22":-0.1442103585264882,"23":-0.1075915522240261,"24":-0.2806436074858512,"25":-0.08707587653649092,"26":-0.28952778027058906,"27":-0.20108377916444842,"28":0.06542673570199738,"29":-0.16442686186494596,"30":-0.17690140453803613,"31":0.053031589161295106,"32":-0.03173057546275363,"33":-0.12042950613312679,"34":0.04064270330293497,"35":-0.1969018983313969,"36":0.03010916356048915,"37":-0.13161364185310376,"38":-0.2850421188984392,"39":-0.20233760441993362,"40":0.1026413889883169,"41":-0.07323099624926965,"42":-0.05247797355600092,"43":0.06904957510451881,"44":-0.0933255407394027,"45":0.05280664580111839,"46":-0.10854157293546778,"47":-0.1493449045629181,"48":-0.18607291883252267,"49":0.01835288955066386,"50":-0.14791805658801793,"51":-0.17897789978648868,"52":0.08557426314076971,"53":0.013929676281645386,"54":-0.060108326455182874,"55":-0.13055825593216022,"56":-0.09985093824687392,"57":0.10307450008658176,"58":-0.11240354495593488,"59":-0.04075116970551086,"60":-0.12170153421045597,"61":-0.2132961010638079,"62":-0.13907534879072317,"63":-0.204445728645466,"64":-0.07733406847991194,"65":0.027544724100398484,"66":-0.07529448979699273,"67":-0.19576219861420885,"68":-0.20133748915500035,"69":0.0028034050887270965,"70":-0.05751731490701882,"71":-0.004440892176533928,"72":0.01003384281531384,"73":-0.09028435225806873,"74":-0.2152225302157862,"75":-0.14957116888231928,"76":0.12691881020203727,"77":0.15824108620305277,"78":0.14847990221068064,"79":0.02531451241538492,"80":-0.15229753032302557,"81":-0.1085868881943328,"82":0.10255972247839555,"83":-0.0012178665533799217,"84":0.0670965222678067,"85":-0.11488356062209057,"86":-0.11439210310319091,"87":-0.09082237862815053,"88":0.14108763886359418,"89":-0.04680295773309294}},"2":{"bias":-0.11254355599288748,"weights":{"0":-0.20075785388354425,"1":0.062473120829652375,"2":0.04285954742503148,"3":0.15231666217117845,"4":0.1310340940677876,"5":0.08301338380738518,"6":-0.18959663850559635,"7":0.11129166229878744,"8":0.05493020768331883,"9":0.030806193821981194,"10":-0.02182894579073524,"11":-0.07555735178346486,"12":-0.02945905836575768,"13":0.07192274746566775,"14":0.11122812200417878,"15":-0.0968492532559543,"16":0.057411867216192,"17":-0.01665202195140155,"18":0.13081230219162357,"19":-0.11868789336912369,"20":0.0011230140707890765,"21":-0.11348598535691488,"22":-0.03394834491156084,"23":0.11908984211661787,"24":-0.09017437291295506,"25":0.10583210087013463,"26":-0.22387726266215766,"27":-0.030750071009639095,"28":0.05531329718871062,"29":-0.19944050382621184,"30":-0.13523457657579352,"31":-0.03337985485664681,"32":0.16395954021850453,"33":0.10965962813142437,"34":-0.1347738858191777,"35":0.04232753947586569,"36":-0.0704305044585822,"37":-0.03823398081417266,"38":-0.03062193869192447,"39":0.12689373525707426,"40":-0.037291416185969664,"41":-0.20083260306331344,"42":-0.14822495972974511,"43":-0.09115552634936115,"44":-0.14538783449020828,"45":-0.0004947924265959185,"46":-0.04045258400056096,"47":0.17332201584660134,"48":0.04629669577795792,"49":-0.05305976311399617,"50":0.10755887571522922,"51":-0.14173886969447944,"52":-0.04750608231339708,"53":-0.18499257921240522,"54":-0.11241813027258855,"55":-0.05026962189235824,"56":-0.009496679614975514,"57":0.16873203364873995,"58":0.04656498281304795,"59":0.06510064561244491,"60":-0.14580460716608915,"61":-0.06049387424733561,"62":0.10815692273111077,"63":-0.11999384431799066,"64":0.08370096786179308,"65":-0.12590317289964265,"66":-0.19136761591499624,"67":-0.15158911102225267,"68":-0.1411466205527046,"69":-0.0002132964592049237,"70":0.16035599551714802,"71":-0.2003893361727383,"72":0.1074291467919732,"73":0.1377626208656492,"74":-0.07126772232209484,"75":0.05698084492817194,"76":-0.15246823162603815,"77":0.015792562899102316,"78":-0.13665289097234926,"79":-0.20752408193446237,"80":-0.12450857422004584,"81":-0.07654338371186897,"82":-0.09907946751446725,"83":0.13478100709095941,"84":-0.18580831490077682,"85":-0.11123743636255794,"86":0.15271460358912792,"87":-0.1720079518994762,"88":-0.14577159236852408,"89":0.10146220894147726}},"3":{"bias":-0.06941308048605543,"weights":{"0":0.0381391816558208,"1":0.03212063804697259,"2":0.04311562124369914,"3":-0.12862746240830528,"4":-0.11715945557642601,"5":-0.02468659343423497,"6":-0.057802218280398304,"7":-0.1010130017362984,"8":-0.08550893276429113,"9":-0.10867428964374587,"10":0.03797147361964129,"11":-0.03997123175916311,"12":0.02398440044150487,"13":0.12691795921732224,"14":-0.03860884103123808,"15":-0.0146515657102358,"16":0.11488903397553124,"17":-0.1507590614910374,"18":0.16106141775186442,"19":-0.014917182389797468,"20":0.13425519887094498,"21":-0.1756425895012603,"22":0.1829731059725423,"23":-0.008124527782797123,"24":0.08975560211669567,"25":-0.17097137391536701,"26":-0.19323507034763202,"27":-0.15189058245008918,"28":0.1816399788481797,"29":-0.17438268007629826,"30":-0.011882776538087302,"31":0.09804982265492042,"32":0.1838149935073589,"33":0.15439200535754208,"34":0.10695788713344462,"35":-0.10548431816785817,"36":0.009265052244553039,"37":0.07524746444199354,"38":-0.04641291813273146,"39":-0.18067681126760604,"40":-0.013376764677053721,"41":-0.05900760703167166,"42":-0.12317291664171484,"43":-0.08283175805120846,"44":-0.13578436318613407,"45":0.1525482036043199,"46":0.13606345072557793,"47":-0.050475778215898694,"48":0.054162270815986284,"49":0.09757171801946028,"50":-0.0025971124213243916,"51":0.1830398849019408,"52":-0.10059297216080343,"53":0.15178816781786292,"54":-0.07982923121273727,"55":-0.16810469276777573,"56":0.13192568287245438,"57":-0.18573097615382936,"58":0.1522381245633929,"59":0.017445220964647002,"60":0.17260801999462982,"61":0.02032249959401361,"62":-0.04886359610344522,"63":0.16134066157898794,"64":-0.1240624537135348,"65":0.015215759376546113,"66":0.03991594276353538,"67":-0.05549670829952323,"68":0.04547216664849895,"69":-0.012151157248231514,"70":0.16170636321921494,"71":0.011574264614207835,"72":0.11088918260627573,"73":0.08869752094224284,"74":0.09385200956974869,"75":-0.15032315601680363,"76":0.15111725694103875,"77":0.1312141830214479,"78":0.1597082924034897,"79":0.011229582668866402,"80":-0.016435131287225624,"81":-0.07234493289346647,"82":-0.07845995816771167,"83":-0.09617424870193289,"84":-0.1347590911351859,"85":0.012548589671355925,"86":0.09058829371704892,"87":-0.08092574333686126,"88":0.16996679688325533,"89":-0.19737321385245174}},"4":{"bias":-0.1075272317363959,"weights":{"0":0.2346295775618235,"1":0.36015234029031734,"2":0.344006661108284,"3":0.14787685564505693,"4":0.10213769681829993,"5":0.3314346449911514,"6":0.46433076785605054,"7":0.30602240733605385,"8":0.2662649475791245,"9":0.20404368871396683,"10":0.15686179675379422,"11":0.12995920936175415,"12":0.14012514397865025,"13":0.41625016468309106,"14":0.06752304142744635,"15":0.35629124931596884,"16":0.24293957906887384,"17":0.21366455812051743,"18":0.18423718827556718,"19":0.30715998770465536,"20":0.22703024031237234,"21":0.08941621832550593,"22":0.3224237884398214,"23":0.1630977736248378,"24":0.2568614207771336,"25":0.35174308091390283,"26":0.25673870674361143,"27":0.3369227881990971,"28":0.16272728276142148,"29":0.11338931635737222,"30":-0.05057413166636641,"31":0.017532105797808242,"32":0.2577566225024789,"33":0.3130442630654622,"34":-0.007859346210457984,"35":0.09926412856176792,"36":0.0570500238670527,"37":0.29864350987260985,"38":-0.04163022185367442,"39":0.19485981927540366,"40":0.13666180247865956,"41":0.05676438739367883,"42":0.2874299301448573,"43":-0.019589394594438342,"44":-0.034265044713071305,"45":-0.01150458067021229,"46":0.2472636178126061,"47":0.23610345385116543,"48":0.24584428302106698,"49":0.24099695724867204,"50":0.008748883948534203,"51":0.1366765561097257,"52":0.12432938303734939,"53":0.14267298746478302,"54":0.23939436194438046,"55":0.18256059659881754,"56":0.13539766037567535,"57":-0.06523391141372285,"58":0.1297331367200919,"59":0.17977942769819605,"60":0.1258094908003153,"61":0.018495605996146462,"62":0.1453028759548942,"63":0.030448286382850374,"64":-0.09986416713089005,"65":-0.03419808785349476,"66":0.14120981612198538,"67":-0.06984089549260629,"68":-0.044525068590493044,"69":0.03698937127152235,"70":0.0927048168165982,"71":-0.0818399447786228,"72":-0.0635426007768137,"73":0.025071554978897702,"74":-0.1408553996519462,"75":-0.1341295958622764,"76":-0.03153453075765469,"77":-0.13045762851280873,"78":-0.14877345185652027,"79":0.15092586520846904,"80":-0.18039216609919895,"81":0.004066708424433945,"82":-0.1794136453819161,"83":0.025809644534931366,"84":-0.04349794343617913,"85":0.09899498275888811,"86":-0.09131432831263825,"87":-0.17249454915334125,"88":-0.12248918063601857,"89":0.10704737908679368}},"5":{"bias":-0.03221487983729255,"weights":{"0":0.07220105942724414,"1":-0.05385463640972143,"2":0.1820979499784357,"3":0.15448333383070836,"4":0.11032810768484168,"5":0.19192381566872582,"6":-0.09471806936717295,"7":-0.1512662125258038,"8":0.07352682613396455,"9":0.1001862310428132,"10":0.1474043562565435,"11":-0.16134805982981168,"12":0.111137687389985,"13":0.14490491561082022,"14":0.08964427645027384,"15":-0.08072015221479183,"16":-0.03225737080975954,"17":-0.05046255435943535,"18":-0.06571477317505413,"19":0.18384753792892225,"20":-0.15659503123993002,"21":0.14789028037722177,"22":-0.15120675513308954,"23":-0.11103423437001658,"24":0.08976787584826995,"25":-0.09266499477898175,"26":-0.10655232222281176,"27":0.2128253170046008,"28":-0.06899008000104678,"29":0.09559734207547209,"30":-0.12283483534612163,"31":0.13176782449038646,"32":0.054743038543215106,"33":0.169330296314787,"34":0.004818750559649539,"35":0.07834022642714657,"36":0.19308026903852613,"37":0.14290912261335895,"38":0.03795567871659502,"39":0.16241991513963067,"40":0.11545297247309902,"41":-0.11091071036065647,"42":0.14819889370064113,"43":-0.15489472672918783,"44":-0.11512092835881205,"45":0.024286213891567054,"46":0.06029366822612644,"47":-0.1924485094942851,"48":-0.189868270066778,"49":0.062245660265404505,"50":0.15369258988780388,"51":0.1671932209605639,"52":-0.03930025858963136,"53":0.07552920639212322,"54":0.09537977352590793,"55":-0.09083372430351298,"56":0.0827098685436976,"57":-0.13047980256932062,"58":0.09053639056670272,"59":-0.1573508966369689,"60":0.028171361259755792,"61":-0.08093258511769968,"62":0.09290507232290263,"63":-0.13358834277885656,"64":0.010554836944046526,"65":0.16535136071300074,"66":-0.030049885756691614,"67":-0.06331367377442955,"68":-0.19483347138888688,"69":0.16948720481190901,"70":-0.13111062516594305,"71":0.013534155436579752,"72":-0.18004283039583044,"73":-0.19556480733688508,"74":-0.08222309045731785,"75":0.07704226615591946,"76":0.01763084231601265,"77":-0.17514462342041215,"78":0.10555454937951787,"79":-0.13727569842319703,"80":-0.17092412175440133,"81":0.17102366939241312,"82":-0.180153532313604,"83":0.10005431664466363,"84":0.006025136376700787,"85":-0.2043457126025728,"86":-0.17369401272608803,"87":-0.1494063167287688,"88":-0.06022816951141605,"89":0.1579661077296783}},"6":{"bias":0.08706551800794307,"weights":{"0":-0.05835562550770868,"1":0.04260440825798912,"2":-0.04071820244010864,"3":-0.08241394392185342,"4":-0.2547769767851008,"5":-0.03895561753221658,"6":-0.21060485037975443,"7":-0.1441580596586352,"8":0.019794355831124686,"9":-0.1362582584793022,"10":-0.27666127526300704,"11":-0.02130116819200906,"12":-0.22081177423061726,"13":-0.1382203089313415,"14":0.07891300997614792,"15":-0.13119518544403466,"16":-0.04543047176642836,"17":0.040285710870868026,"18":-0.19867824501993606,"19":0.0532947299082704,"20":-0.20891621575079286,"21":-0.23374242881730897,"22":0.04943060578625543,"23":0.1238822070142646,"24":-0.17328381269468904,"25":0.052460101178585926,"26":0.0360046306010521,"27":-0.23803051845110895,"28":-0.011369573649407888,"29":-0.2308578994164432,"30":-0.09463976289939571,"31":-0.13913254300641803,"32":0.08095169380935009,"33":-0.009809341616348643,"34":0.06828819273552422,"35":-0.056993071507960354,"36":0.03873767958282909,"37":0.012557262256122335,"38":-0.15891747140313206,"39":-0.1980645406559649,"40":-0.09998304754707116,"41":0.13860453820858173,"42":-0.046491348971970575,"43":-0.05071023735859207,"44":-0.22669621507698237,"45":0.08633840003964156,"46":-0.1525383073879389,"47":-0.22544769433738351,"48":0.05703776710159008,"49":-0.079778732726919,"50":-0.19469957596480644,"51":-0.17625985196342722,"52":0.16524875602444,"53":-0.10066685843254382,"54":-0.22642344250667432,"55":-0.19332087258842443,"56":0.16087304624937707,"57":0.17190918393920562,"58":0.005085731864529925,"59":-0.1883098497645259,"60":-0.028737799583497144,"61":0.1625205511584371,"62":0.046745061646389155,"63":0.027245710933186663,"64":0.1761982545385464,"65":0.04340731726364791,"66":-0.18649737372972663,"67":-0.1083117768354987,"68":-0.20981794798490688,"69":0.039415814407412784,"70":0.00573959799450989,"71":0.15001825916469594,"72":-0.11608446309319265,"73":0.03821538395619112,"74":-0.1085320226424834,"75":-0.07124540673502067,"76":-0.20791269692971942,"77":-0.08164391388454634,"78":-0.17929368055791248,"79":-0.0014653966665457308,"80":-0.16438723793684157,"81":-0.14133567902615388,"82":-0.05888552745123929,"83":-0.11049842399873079,"84":0.16834974191547059,"85":-0.15862379649328653,"86":-0.053193934577043925,"87":-0.1513272935927681,"88":-0.011293045266973329,"89":0.10294516735029162}},"7":{"bias":-0.18203234362382514,"weights":{"0":0.06677561787370806,"1":-0.18190835218688448,"2":-0.08951045943541173,"3":-0.21357494519304504,"4":-0.20886817189067158,"5":0.0937728267953259,"6":-0.035147313796570046,"7":-0.25819022923177876,"8":-0.08629343936566898,"9":0.0929189539884593,"10":-0.18015119073153932,"11":-0.24351722229972061,"12":0.08881904533221778,"13":-0.24647214971600678,"14":-0.1097805190072105,"15":0.09094737176600137,"16":-0.1394221800406059,"17":-0.05943446059460684,"18":0.055767958732796954,"19":0.053971018819748064,"20":-0.15910034034713305,"21":-0.231892798998711,"22":0.12958645716384787,"23":0.017381142443437872,"24":-0.058776761644095274,"25":-0.04863618208349945,"26":-0.0007122209281408067,"27":0.001099158346992142,"28":-0.22137796228171658,"29":-0.215622052781809,"30":-0.2199267376761819,"31":-0.11103698576221784,"32":0.019543210908208288,"33":-0.12574360827325953,"34":0.14381999715954027,"35":-0.18969950706297434,"36":0.13907348365041122,"37":-0.020291246940775606,"38":-0.18183923681347725,"39":0.13055984034009968,"40":0.15469976867351068,"41":-0.11481882568236178,"42":-0.22322009526729497,"43":0.14462826394515724,"44":-0.1694921228001099,"45":-0.048935099858270624,"46":-0.21218807586831898,"47":-0.10412745253066287,"48":-0.2120166949002407,"49":0.1409360274470631,"50":0.1047230770881227,"51":-0.13355201141803508,"52":-0.048288193869872584,"53":0.01463462371884415,"54":0.1092273302498449,"55":0.17147316133000337,"56":0.08328205605354562,"57":-0.1973218847664763,"58":-0.1540096469634821,"59":-0.0322306337409385,"60":-0.0659962695424998,"61":-0.09994956051565125,"62":-0.015392226618165365,"63":0.002769825129291601,"64":-0.07660296375413313,"65":-0.09293565579081622,"66":0.0445808452535061,"67":0.1000077008618416,"68":-0.12832617464228033,"69":-0.11310297679785696,"70":-0.034528407960138695,"71":-0.16021269263783477,"72":-0.1123264355720341,"73":0.13567707494562506,"74":0.09422554582979371,"75":0.053506025471283095,"76":0.13940752045663676,"77":0.02302554455029922,"78":0.09807084504368503,"79":0.12088223655483195,"80":0.1234949220515907,"81":0.18695290244051724,"82":0.11449334963830433,"83":-0.18024364233315376,"84":0.14157072858241973,"85":-0.1307995059171046,"86":0.12634806764866507,"87":0.0698834205461073,"88":0.1635024792578774,"89":-0.03920216152267803}},"8":{"bias":-0.07075306809097534,"weights":{"0":0.4708025501639303,"1":0.253962242612877,"2":0.20097772975128012,"3":0.5182468948996103,"4":0.19494299139314994,"5":0.4416159635965953,"6":0.43690627269104015,"7":0.36724424067505784,"8":0.10712393871723444,"9":0.4182694796813019,"10":0.12201732921704507,"11":0.4400175919442029,"12":0.2145810639074862,"13":0.20019437150467026,"14":0.3420084452511149,"15":0.3961800873228678,"16":0.40258207199608814,"17":0.3010817132106825,"18":0.11269405046238075,"19":0.35905602581434637,"20":0.21265115005509355,"21":0.24306516572086861,"22":0.2046987819826182,"23":0.07719650156303284,"24":0.34090647802720203,"25":0.08650221409450536,"26":0.037340669750822404,"27":0.19472108658008663,"28":0.005226406090613828,"29":0.0620222902062107,"30":0.129600190330817,"31":0.23028899076125398,"32":0.2537990176099996,"33":0.03222895108453283,"34":0.08333951055289922,"35":0.29589285884555544,"36":0.06279313657673476,"37":0.29440195782565654,"38":0.3077250703872856,"39":-0.047838209988007675,"40":0.25541883465088744,"41":0.24414106338955321,"42":0.20753890790220408,"43":0.2469310267947607,"44":0.11225405161022516,"45":0.00211444825194388,"46":0.2804298881035906,"47":0.061564221616934485,"48":0.11951939922667067,"49":-0.06941150713235515,"50":-0.004617478986121338,"51":0.12390978945875962,"52":-0.06722789637896176,"53":-0.011062749080247816,"54":0.14500613055640937,"55":0.21002875075205796,"56":-0.15101707720117613,"57":0.09936773067330448,"58":-0.06499785277065186,"59":0.20537693650557373,"60":-0.09144623729277303,"61":0.011909179907156977,"62":0.14842255408123348,"63":0.14818102968460534,"64":-0.14889034397091674,"65":0.17600661441222348,"66":0.05161232716482858,"67":0.13789980677579897,"68":-0.006717070709897395,"69":-0.010642525179300507,"70":0.18417100299215142,"71":0.025547013361282855,"72":0.15149253112330993,"73":-0.11741702308250875,"74":0.03816319969874899,"75":0.12924812027922664,"76":0.09262016809828728,"77":-0.17562418275112132,"78":0.17053650922467606,"79":0.011484645716203074,"80":-0.1306571622010752,"81":0.1657225124172835,"82":0.12018772924398105,"83":-0.085737197987896,"84":-0.012196349054517051,"85":-0.15628953652856803,"86":-0.10024832511940579,"87":0.10426608026027262,"88":-0.16275621073288085,"89":-0.02699029413623106}},"9":{"bias":-0.13374707687681067,"weights":{"0":0.037897042703284194,"1":0.04858818651000451,"2":0.13098988045734306,"3":0.22106935478139092,"4":0.23585528302126788,"5":0.10796662218236208,"6":-0.021796634113320553,"7":-0.11793868591269645,"8":0.07722574527145486,"9":0.2565947521293493,"10":0.1804544706726178,"11":-0.08314446445584309,"12":-0.007024230089465707,"13":0.22230754767671118,"14":-0.1261941619116423,"15":-0.028630761274553804,"16":-0.0046501277389194694,"17":0.034679726814867334,"18":-0.03652991488301662,"19":0.003956103532532728,"20":0.11314095597115997,"21":0.057940019473319546,"22":0.11416911027200254,"23":-0.1338178232163493,"24":-0.03448730415544168,"25":-0.015498365763668975,"26":-0.05646918458721377,"27":0.12102918291273797,"28":0.12730929845418393,"29":0.0520419645633027,"30":0.029445712068357874,"31":-0.08148041951689938,"32":0.05921998503097083,"33":0.06623604660154338,"34":-0.10687469457000637,"35":0.04957853267033562,"36":0.21277691879026653,"37":0.08598097224798432,"38":-0.05569371954581223,"39":0.12504481942824153,"40":-0.06102534728514549,"41":-0.05953001557011771,"42":-0.1452190479823289,"43":-0.14817967107106286,"44":0.03495986978785868,"45":0.05573648268715645,"46":0.03942737499595429,"47":0.18888230046923363,"48":0.06505179531454926,"49":0.17211000382833933,"50":0.009824329946017233,"51":0.096252154078651,"52":0.18318057900767623,"53":-0.11745130557832749,"54":0.09669845898838157,"55":0.02942903463338359,"56":0.07261886262266869,"57":-0.1565771828670829,"58":-0.03163197355286069,"59":0.04764867206974167,"60":-0.11306119017292639,"61":0.18917181240788314,"62":-0.09127286331187145,"63":0.13159712627778242,"64":-0.039977774344670536,"65":-0.0509770871951851,"66":-0.007634785766494333,"67":0.12843249037741178,"68":-0.17381509841395404,"69":0.1398414333301297,"70":-0.16510396930076926,"71":-0.20653383628727337,"72":-0.062500694021571,"73":-0.17924891438634247,"74":-0.18815348891469647,"75":0.12351176070358713,"76":0.010670055304077601,"77":0.10970235160671062,"78":0.1136567117428204,"79":0.10209388198787032,"80":-0.09379324535600632,"81":0.07288794800537156,"82":0.123367973726735,"83":-0.1915452926442749,"84":-0.03281091643757605,"85":0.004403371800375351,"86":-0.01663437175358419,"87":0.03584017841047283,"88":0.102188564367248,"89":-0.1314934983170103}},"10":{"bias":0.13123960579374105,"weights":{"0":-0.08180209257292063,"1":0.21810791064993296,"2":-0.07018086929177898,"3":0.04225262533693056,"4":0.04981414875345231,"5":0.0899267536032244,"6":0.20354446300953755,"7":-0.05199759680228115,"8":0.18926589260423204,"9":0.07655935057091984,"10":0.12598704155562346,"11":-0.16409366991779814,"12":-0.025652571209458807,"13":0.1729519009534358,"14":0.1238974010229337,"15":0.06110865596008131,"16":0.017673677716170573,"17":0.15184252360807415,"18":0.006201335372453675,"19":0.09148444092618453,"20":-0.0427129831300695,"21":0.12284348575541741,"22":-0.09117145524024971,"23":-0.09525209266520619,"24":0.14991804486866828,"25":-0.09201841253525629,"26":0.004478220686767044,"27":-0.07437486566185601,"28":-0.16355387462706825,"29":-0.1743496068344867,"30":-0.1632934393730171,"31":0.027596636879377304,"32":-0.06432279066873914,"33":-0.03305380572951582,"34":-0.09394743219069758,"35":-0.005270009318276056,"36":0.024571784299859744,"37":0.028688595343874763,"38":0.19145469687556976,"39":0.10424915580625699,"40":0.07317553655385628,"41":0.1675588500258376,"42":0.030033260168497,"43":-0.06377405711906368,"44":0.10981069920488923,"45":0.16906981527805598,"46":-0.12035739685158019,"47":0.017403806016545058,"48":0.14998942719438077,"49":0.001079837533408898,"50":-0.1970291861286138,"51":0.1644806113840139,"52":-0.18855933486466323,"53":-0.06361670723083511,"54":0.16189321357413786,"55":-0.1614487905762588,"56":0.08001466763601231,"57":-0.13650214864598795,"58":-0.009861136479482674,"59":0.052166502249485255,"60":-0.1510112486445885,"61":-0.2009656851852599,"62":-0.00407092381290599,"63":-0.19580119972244234,"64":0.15118490900473738,"65":-0.09185222745626868,"66":-0.15837497181304308,"67":-0.20663336261951237,"68":0.1785828440273594,"69":-0.027212884844800257,"70":0.07548626673471667,"71":0.07376157116445765,"72":0.12024351551977781,"73":-0.19804473684383334,"74":-0.11341885538420446,"75":-0.10321416486095675,"76":0.13620638917196862,"77":0.05281255143044754,"78":-0.1841567955655562,"79":-0.07391568001325723,"80":-0.06200082652159627,"81":0.10154775647470009,"82":-0.16424726571484302,"83":0.0005845605678714321,"84":-0.08440160723673147,"85":0.0660305789662689,"86":-0.07132222520474997,"87":-0.03740198941854095,"88":-0.08989121093019978,"89":0.08402290179054688}},"11":{"bias":0.01564701450614557,"weights":{"0":-0.03295938314297458,"1":-0.4076461799643031,"2":-0.22930528552383106,"3":-0.3900586583685906,"4":-0.19382685316666512,"5":-0.34743148934044193,"6":-0.01520821094608406,"7":-0.1107076163521746,"8":0.014041961365252372,"9":-0.2106434512666716,"10":-0.300668187558753,"11":-0.08415542318189989,"12":-0.3203261558331906,"13":-0.21253793555977374,"14":-0.2404686723290135,"15":-0.3347925470409304,"16":-0.01577234026772562,"17":-0.24367189962526742,"18":-0.2722427666983967,"19":-0.0474853578130742,"20":-0.10424344155966268,"21":0.046870874554100696,"22":-0.15954136115860065,"23":0.03787995983446941,"24":-0.19669440087259926,"25":-0.02939908557614167,"26":-0.05815080067991053,"27":0.0697337555695865,"28":0.009160705875501872,"29":-0.24585258781585048,"30":0.05351182345249063,"31":-0.0778773975508955,"32":-0.18667347240712565,"33":0.025213488695315762,"34":-0.080578029183744,"35":-0.029594815815086672,"36":0.01980098136531482,"37":0.09896233782148238,"38":-0.2645894344308227,"39":0.06721445767963906,"40":-0.09181298603394313,"41":-0.27388739526165284,"42":-0.105594768586801,"43":-0.046162492443680425,"44":-0.17227162204953497,"45":-0.24100785322200216,"46":-0.23282606668488373,"47":0.07508853737660634,"48":0.01658862605542565,"49":-0.25008413852882355,"50":0.11411336071412768,"51":-0.015876423938711134,"52":-0.06782119260942845,"53":0.12061061750691818,"54":-0.19492299429554005,"55":0.14008040618738335,"56":-0.2088922004111385,"57":0.03289595497300427,"58":-0.1726258412881116,"59":-0.03319885602305567,"60":-0.21541742117771912,"61":-0.2111819326757219,"62":-0.07401258472370353,"63":0.1392752300148801,"64":-0.014472002639845544,"65":-0.11025693050089683,"66":0.1491135254367928,"67":0.09033070239787899,"68":0.13966204254031195,"69":-0.1444743668124753,"70":-0.007741670579767197,"71":-0.08927498991517682,"72":0.05758073293166553,"73":-0.09834212759557345,"74":-0.19472782891082177,"75":-0.04863292337981574,"76":0.013032209169688289,"77":0.14953175134396457,"78":-0.19204376864283512,"79":0.0470227299725149,"80":-0.13584446774283637,"81":-0.08293088906345521,"82":0.04592386840683936,"83":-0.09311689984849948,"84":-0.12484002037811665,"85":-0.06212944046830134,"86":-0.1362575529123585,"87":-0.19161242271626502,"88":0.05436736240925435,"89":0.08833687511741192}},"12":{"bias":-0.06942888165154387,"weights":{"0":-0.3290040803069021,"1":-0.30265248456232746,"2":-0.12637283054583257,"3":-0.24164469150459172,"4":-0.3129008507206819,"5":-0.3466930860098619,"6":-0.14422498962957725,"7":-0.20662188623273914,"8":-0.0898624799045354,"9":-0.1768538716190815,"10":-0.029317363307770874,"11":-0.33942700460801756,"12":-0.35817193448117374,"13":-0.3210808914221,"14":-0.0018106034907720019,"15":-0.2234515288335239,"16":-0.36748903399059224,"17":-0.26701473758153443,"18":-0.02320156202687216,"19":-0.032529538293854736,"20":-0.2769311657312995,"21":-0.0073556550685214255,"22":-0.003733721223998287,"23":-0.09077767798039615,"24":-0.32892778811486767,"25":-0.23026228983957428,"26":-0.05298802503774366,"27":-0.043175876745112536,"28":0.03483426513133187,"29":0.04185404220653071,"30":0.04950868035915208,"31":-0.268527551688219,"32":-0.06976139698838861,"33":-0.04780166894362634,"34":-0.306686903951303,"35":-0.22703877458143243,"36":-0.11035564320643328,"37":-0.16850625748223,"38":-0.058572457568212256,"39":-0.20346414456697565,"40":-0.02364476487894814,"41":-0.23638035634552643,"42":-0.03287466566939098,"43":-0.07434114323490514,"44":0.02897595436935972,"45":0.01982064296045449,"46":-0.27723292173862313,"47":-0.19843169739892141,"48":-0.13778649379451438,"49":-0.012258906444536553,"50":-0.11204939355629576,"51":-0.1573436614774605,"52":0.12286486621349213,"53":-0.23446825596312756,"54":0.026983451882460287,"55":0.036763042723006345,"56":-0.0880200477299094,"57":0.046300817891301645,"58":-0.17122763558433285,"59":-0.005492187760031385,"60":-0.20661590121419784,"61":-0.11204221424134132,"62":-0.226233659263996,"63":-0.058929755261829496,"64":0.015906257928861404,"65":-0.14004114276934176,"66":0.0362753121534101,"67":-0.08199195402936447,"68":0.07508107407571256,"69":-0.17624086523176397,"70":-0.18614054618938713,"71":0.10350418246329181,"72":-0.008723154879454454,"73":-0.21132038491580993,"74":0.09981923987328922,"75":0.012301243043556837,"76":0.1377231917856949,"77":-0.09053121343044666,"78":-0.03864415916887811,"79":-0.09370066226753805,"80":-0.13108756138958458,"81":-0.09139801307758282,"82":0.002945264096515875,"83":-0.20459900041571272,"84":0.03860802875632738,"85":-0.08027229799527402,"86":-0.17998489087412545,"87":-0.007616761753746476,"88":-0.0862643750266717,"89":0.021454253335875587}},"13":{"bias":0.0014169913955676605,"weights":{"0":-0.15360272860287674,"1":-0.05737208886898513,"2":-0.33277285564428444,"3":-0.036393143279510876,"4":-0.12758616763784186,"5":-0.10952097198693998,"6":-0.2953668987447562,"7":-0.31384239757633575,"8":-0.01642436015619512,"9":-0.23215248415657974,"10":-0.21865987609037357,"11":-0.07077252758446795,"12":-0.2966270736073485,"13":-0.043888735576627785,"14":-0.2965481366259206,"15":-0.17512847428167075,"16":-0.14527097933419258,"17":-0.31683090256250646,"18":-0.11835336372201334,"19":-0.15817178573492224,"20":-0.07724572578850915,"21":-0.2728329644372754,"22":-0.13898144068142398,"23":-0.14695185377733536,"24":-0.01934335206461031,"25":0.02251038958872549,"26":-0.19293189515218506,"27":-0.03589814782191504,"28":-0.2502756020944203,"29":0.02046204525718767,"30":0.056412226481675064,"31":0.019886187786763793,"32":0.08165642718077927,"33":0.011656670547609875,"34":-0.10820507908016055,"35":-0.08461853445496215,"36":0.033069998710206654,"37":-0.10391792555221105,"38":0.025414580440353652,"39":-0.22327374195792551,"40":-0.09756973407527057,"41":-0.08596608165862844,"42":-0.08495807351603732,"43":-0.25671030140311907,"44":-0.07977939408448943,"45":-0.1547129717742318,"46":0.01170060418737476,"47":0.03437674134101703,"48":0.04163039662857346,"49":0.05605512991565505,"50":-0.19327615810930526,"51":0.08328100196496963,"52":0.08234451429280636,"53":0.05653410400018025,"54":0.04365647193833945,"55":0.1359833222985578,"56":0.10703314831252428,"57":0.13528505225283718,"58":-0.025654184499174545,"59":-0.20081737900415644,"60":-0.14798221331873065,"61":-0.041151255789910086,"62":0.04877245546150268,"63":-0.03847040713574062,"64":0.08067642668200156,"65":-0.1769598246003107,"66":0.08282160180895984,"67":-0.05669917806607274,"68":-0.15947156769775542,"69":-0.10981551883078274,"70":0.15288588528381855,"71":-0.018385797411244267,"72":-0.14603702753939868,"73":-0.017827714062877895,"74":0.1116105416446236,"75":-0.019367580153751743,"76":-0.12943882716292993,"77":-0.07550121287550812,"78":0.133846054529799,"79":-0.049674096468257024,"80":0.02406566647342053,"81":-0.17543911780844237,"82":-0.040609581296475475,"83":0.07160085406657604,"84":0.13778889154264137,"85":0.052339301565490416,"86":0.08630570389321758,"87":0.0986660571654267,"88":-0.0000566451860820145,"89":-0.11960209506178557}},"14":{"bias":-0.17598906222970664,"weights":{"0":-0.26893861310353007,"1":-0.350702321973399,"2":-0.1348739281994423,"3":-0.26001102289002426,"4":-0.008483538856403303,"5":-0.013832458690565753,"6":-0.1794890985071006,"7":-0.31842370487858984,"8":-0.18626770434403905,"9":-0.08774258224711706,"10":-0.13892870889853115,"11":-0.287319640394571,"12":-0.2674540011312434,"13":-0.2218405082543985,"14":-0.30929608241756734,"15":-0.16185569877386177,"16":0.030932159985293903,"17":-0.045881114274381705,"18":-0.22000259094824173,"19":-0.22306411562303877,"20":-0.04008651956617605,"21":-0.24307322556497063,"22":-0.13925154122082828,"23":-0.25723600226424803,"24":0.061235312871430046,"25":-0.20830036081325126,"26":-0.24601630779860426,"27":-0.18077182028939073,"28":-0.23665644079386605,"29":0.0031159058550187984,"30":-0.2443703990140327,"31":-0.039821856026063515,"32":-0.1863630041164725,"33":0.0723507475092438,"34":0.049592020076178765,"35":-0.048196249122625545,"36":-0.1699956368730999,"37":-0.13608155478340536,"38":-0.04595020772651081,"39":-0.11758369555311181,"40":-0.07342161430117386,"41":-0.02114425588852753,"42":0.08346560341530235,"43":-0.004452494550445258,"44":0.11465216163105237,"45":0.06050289516007153,"46":0.07560562908458178,"47":0.04230884889668798,"48":-0.13410502966977372,"49":-0.06368980019886633,"50":-0.1926418278374395,"51":-0.23073700011843046,"52":-0.10393702395952782,"53":0.013522077105354607,"54":-0.12698258717730543,"55":0.016978400834342683,"56":-0.22963601849574872,"57":-0.23663103270955174,"58":0.11019929822156095,"59":0.07496991922989125,"60":0.025931612658699053,"61":-0.060552433577956595,"62":-0.039318943828834454,"63":-0.15555320152135355,"64":-0.1700518423405461,"65":-0.20693011418304086,"66":-0.12948393780241677,"67":-0.20303569408172706,"68":0.12286824445566989,"69":-0.13486783105362163,"70":0.12247286580460962,"71":-0.06594465600724994,"72":-0.11827587082530557,"73":0.10041619278424897,"74":-0.13789412698168832,"75":-0.15930840369885235,"76":0.028394892135328406,"77":0.0829082650450378,"78":0.1296150739980285,"79":-0.1352920546448088,"80":0.042471796501094124,"81":-0.16450310405807816,"82":-0.004983303629277261,"83":-0.0526999674863522,"84":-0.07709233084899911,"85":-0.11340557699470828,"86":0.08252056163617891,"87":-0.09077089433484496,"88":-0.11673531495902022,"89":-0.2107219527109778}},"15":{"bias":0.09439952088527996,"weights":{"0":-0.4027067353165421,"1":-0.12621307186591718,"2":-0.2038504835938847,"3":-0.34324710700969724,"4":-0.29569289350864153,"5":-0.3703380285624182,"6":-0.08901089510850814,"7":-0.10142243376393839,"8":-0.3595735600603253,"9":-0.2688608828946163,"10":-0.1521151980696596,"11":-0.340908937424775,"12":-0.28754218937947684,"13":-0.2787063744527497,"14":-0.010521257425174336,"15":-0.1325706663133675,"16":-0.19690629165956647,"17":-0.147003077156206,"18":-0.21618389684069503,"19":-0.13271586473583416,"20":-0.23011236971222862,"21":-0.28403656565408336,"22":-0.18261323808186192,"23":-0.21657344632854356,"24":-0.32178197236479167,"25":-0.253069446499441,"26":-0.04645430881145941,"27":0.034702998300046355,"28":-0.20798184436612766,"29":-0.2521654292674985,"30":-0.043844008291706274,"31":0.08123732364524561,"32":0.06937537287208058,"33":-0.06397176560530185,"34":0.08413587030326412,"35":-0.1751675245193297,"36":-0.06514681056011071,"37":0.02651717325693992,"38":-0.08006512396970285,"39":0.021074636465567263,"40":-0.1143684946204066,"41":-0.06899967882890116,"42":-0.08336212177163531,"43":0.02255772198751337,"44":0.08996113020146483,"45":-0.030089805131279512,"46":0.08612747652669854,"47":0.006399556147551567,"48":-0.23769146870626293,"49":-0.02032761951774509,"50":-0.19075591572063905,"51":0.1200188580595576,"52":-0.017987589367346558,"53":0.06438777568450992,"54":-0.10494562341784114,"55":-0.22720381240292054,"56":-0.05612762904638089,"57":-0.15157877140318016,"58":-0.030219500253535054,"59":-0.008605179099508935,"60":0.12570104371938118,"61":0.050997186892653784,"62":-0.03636346157772016,"63":-0.0660871132279346,"64":-0.052776086479874085,"65":-0.1691390120950703,"66":-0.032981955809460964,"67":0.07936006255013181,"68":-0.06833392469466568,"69":0.1648538589708822,"70":-0.03561906680665278,"71":0.12671732784850237,"72":0.07501509625540691,"73":-0.08287246689598926,"74":-0.1293917417775338,"75":0.08262758127711248,"76":-0.07369170788441352,"77":0.02682816564576205,"78":0.12851352856013576,"79":-0.11114411068638207,"80":-0.1523365336745785,"81":-0.06594986787148187,"82":-0.17383352425746634,"83":0.15709053218830568,"84":-0.1539717225257612,"85":-0.16568377485821142,"86":0.1316654223654254,"87":0.12734067918979142,"88":0.195121132074852,"89":-0.02089884379221729}},"16":{"bias":0.034159018028209635,"weights":{"0":-0.35844907050549035,"1":-0.4437525319785831,"2":-0.2373009078679217,"3":-0.10843848793605416,"4":-0.07457969689455335,"5":-0.4549862125132197,"6":-0.41195362816093356,"7":-0.22437153620598832,"8":-0.24041118199828249,"9":-0.34717660808036493,"10":-0.3617003422345051,"11":-0.2747303626093661,"12":-0.30320854496049326,"13":-0.14095948953054974,"14":-0.08578774403016452,"15":-0.05295777625377807,"16":-0.16505869689386343,"17":-0.302442482424853,"18":-0.27462956783711273,"19":-0.16237605624481552,"20":-0.20986442640465214,"21":-0.23665729763310556,"22":-0.24309441231870907,"23":-0.14681601618614745,"24":-0.06134930386434283,"25":-0.06156191969853889,"26":-0.25312896703796167,"27":-0.29159454507728566,"28":-0.2875972464987047,"29":0.03913452974759893,"30":-0.03378798767591316,"31":-0.1778000329836491,"32":-0.30083536689691964,"33":-0.21806801568841908,"34":-0.29956943891972626,"35":-0.20389406841853408,"36":-0.023900245032181903,"37":-0.03331358869939649,"38":-0.2444607291211171,"39":0.0370421178887311,"40":0.032092754010495654,"41":-0.2538780459305499,"42":0.02099761538195801,"43":-0.08649282246386394,"44":0.06582727723587628,"45":-0.03289171527562839,"46":-0.04295896683286288,"47":-0.250371553267961,"48":-0.043481680191659315,"49":-0.25144063391034444,"50":-0.06409253319621024,"51":-0.008433725317330628,"52":-0.11557273213436602,"53":-0.013785316519201287,"54":-0.19899637027679465,"55":-0.18112957891543097,"56":0.13311825644612701,"57":0.08653776732009774,"58":-0.09144090649931705,"59":0.1022467066191423,"60":0.12997918378414136,"61":-0.006797949702467953,"62":0.029407884769949814,"63":-0.06246504746126336,"64":0.11499313871733777,"65":0.10212997741127156,"66":0.10899217820615334,"67":-0.20878815311879143,"68":0.10425231266646413,"69":0.07321427723032231,"70":-0.0624424490686328,"71":-0.1632655927996855,"72":-0.2071548086283432,"73":-0.055276483686308706,"74":0.05061927516075492,"75":-0.1349705785765124,"76":0.02041196378005884,"77":-0.09499574209432539,"78":-0.11928198769142304,"79":-0.03402469229873731,"80":-0.08924914497412945,"81":-0.0010510644084962511,"82":-0.16987752744016962,"83":0.05945803962503631,"84":0.1379284035049579,"85":-0.16685426988170243,"86":-0.167713827474112,"87":-0.12038483298746738,"88":0.14812924486007162,"89":-0.08029737131963512}},"17":{"bias":-0.06409705727909783,"weights":{"0":0.23209895463417562,"1":0.05315252467591378,"2":0.281407659059576,"3":0.25507595152277734,"4":0.28758482601577007,"5":0.16564853917712313,"6":0.18680087369874876,"7":0.08699428521764181,"8":0.023563986565039653,"9":-0.05321204554681964,"10":-0.013215837819641776,"11":0.06635771011136377,"12":0.14187527356097535,"13":-0.10777904927121955,"14":0.06386847348797828,"15":0.015162134533330776,"16":0.13427376882086314,"17":-0.08685207853834337,"18":-0.05311359263341324,"19":0.03212815201253806,"20":0.055814661589515834,"21":0.11436229400193779,"22":0.14899530753441348,"23":-0.10893343017800186,"24":-0.13082362629361038,"25":0.23061684673540228,"26":-0.03267717320893939,"27":0.24386265861172518,"28":-0.0405354419588402,"29":-0.03036656815852199,"30":-0.045256881620284635,"31":0.21188289725803772,"32":-0.0855310340852254,"33":0.1655366799124818,"34":0.20823137689339058,"35":0.22062975467873897,"36":0.1892682627038554,"37":-0.17006369788909106,"38":-0.12287062821890848,"39":-0.12583309764674017,"40":-0.022854575556186512,"41":-0.09992401717476078,"42":0.12351745715699265,"43":0.19833811407375115,"44":-0.06143330403574635,"45":-0.1735777200759753,"46":-0.10063277398113772,"47":0.0021263396368758,"48":0.14595259553563858,"49":-0.10272880513765832,"50":0.17181509844659978,"51":0.1068533684279562,"52":0.10863587007956889,"53":-0.04593941082963759,"54":-0.07221496864712447,"55":0.16116614094015153,"56":0.07110628453540696,"57":0.15024598261488673,"58":-0.16789634695897784,"59":-0.09533002294286709,"60":0.1940676479010605,"61":-0.13027591310253248,"62":0.009809358523523923,"63":0.03947123763954449,"64":-0.08393127545735625,"65":-0.18318478830281304,"66":0.18761855968088506,"67":0.14174903256402002,"68":-0.14405255238046852,"69":-0.047573848463463055,"70":-0.09271434631534566,"71":-0.10980403481256497,"72":0.18619284849140735,"73":-0.053858441625072855,"74":0.014050744422122806,"75":-0.10731497266813592,"76":0.18308380475307937,"77":0.06962102787846514,"78":0.024123506095025265,"79":0.14362560150168913,"80":-0.07143560834916048,"81":-0.171908054429033,"82":-0.00802060841453126,"83":-0.011506662013213405,"84":0.166801806953201,"85":-0.1668153527923278,"86":0.04184436670118382,"87":0.07784006282630616,"88":-0.19277778474448115,"89":-0.1438159512604184}},"18":{"bias":0.00325040802497441,"weights":{"0":-0.6252191555428317,"1":-0.41682815769674597,"2":-0.5520005300126333,"3":-0.5447716105734787,"4":-0.3830210123026115,"5":-0.22924621484237656,"6":-0.5082371934139077,"7":-0.2583294002803008,"8":-0.18129604124483717,"9":-0.33624140231999106,"10":-0.3118031109975808,"11":-0.40418653311447894,"12":-0.2810482504901463,"13":-0.3422366402936616,"14":-0.18146141419566603,"15":-0.19337367969699068,"16":-0.3938293727023095,"17":-0.40719655114901826,"18":-0.13565787065131193,"19":-0.39091949056617525,"20":-0.26904071304307253,"21":-0.08458647899077558,"22":-0.3102841843284875,"23":-0.16054397160229886,"24":-0.4142130792402296,"25":-0.273053133279114,"26":-0.1979771766545831,"27":-0.44514807453573013,"28":-0.14523122988902187,"29":-0.04907186592494001,"30":-0.41833461701431274,"31":-0.22984106289472936,"32":-0.22458771806345068,"33":-0.29095779259129995,"34":-0.06390028623618806,"35":-0.32964777003621815,"36":-0.3039809369682553,"37":-0.29867116809477895,"38":-0.36376273308774365,"39":-0.2692438106986074,"40":-0.16345251350664536,"41":-0.2144770174713942,"42":-0.26736759479174127,"43":-0.3294563930472047,"44":-0.04151033397456236,"45":-0.1844249821298618,"46":-0.11699935612079218,"47":-0.06906159134720798,"48":-0.2191140664094821,"49":-0.2665556340392935,"50":-0.27755206769132745,"51":-0.2596948994444062,"52":-0.09363557016908282,"53":-0.09936114624596158,"54":-0.080509899125595,"55":-0.13187535056859284,"56":-0.18543940372528894,"57":-0.19238386187016188,"58":0.0030203812289203084,"59":-0.06070497256987358,"60":-0.25160556628390135,"61":0.035774207533551865,"62":-0.2060519627838876,"63":-0.11303806752012924,"64":-0.1641033257197557,"65":-0.18539632509591597,"66":0.08151545418143026,"67":-0.1627590673111108,"68":-0.06182518847805099,"69":0.08571006567804744,"70":-0.22478605517371766,"71":0.03672140571580503,"72":-0.05363959877078951,"73":-0.049827356248813855,"74":0.08329690964837494,"75":-0.12199088403162177,"76":-0.1654562857682845,"77":-0.15016421244835285,"78":0.1549992164462351,"79":-0.13753248022114617,"80":-0.054590504400136936,"81":-0.20007383093635456,"82":-0.09193445951948467,"83":-0.2072269991502186,"84":-0.11052644153600633,"85":-0.10964806710022725,"86":-0.05267508271970457,"87":-0.1609714645137079,"88":-0.022980324672098797,"89":-0.1885489955794236}},"19":{"bias":0.059719689956762925,"weights":{"0":-0.018106297109428723,"1":0.0006582562099360915,"2":-0.1662964464011911,"3":-0.15038182074721543,"4":-0.24632782865386368,"5":-0.250555051555496,"6":-0.11343228502460259,"7":-0.0577612039315533,"8":-0.10439268015773423,"9":-0.24106051346048554,"10":-0.23825399191612887,"11":-0.09356005907038176,"12":0.00816319657441806,"13":-0.15731835730047022,"14":-0.046352214995409154,"15":-0.198059453706066,"16":0.10841305589308266,"17":-0.01775475891142347,"18":0.10708102740007507,"19":-0.15906337534222503,"20":-0.14367939011799805,"21":-0.10847604217171615,"22":-0.22972228038662523,"23":-0.01854709257830285,"24":0.04428312995750564,"25":-0.22912388001551845,"26":-0.14571723536302833,"27":-0.22247229010064756,"28":-0.06054125752944598,"29":0.13003951530428826,"30":0.13699054262661964,"31":-0.15807123264259063,"32":0.025473133319582963,"33":0.026618151135071697,"34":0.08213318906074923,"35":-0.2273373862788277,"36":-0.009328632929431738,"37":0.10931715340283059,"38":-0.1969642967690907,"39":-0.2316968781706409,"40":-0.009261549859670913,"41":-0.18879685918315398,"42":-0.2006842593682494,"43":-0.017279768388133776,"44":0.15272268118492013,"45":-0.15105396942957566,"46":-0.10751556646484975,"47":-0.04412276869217389,"48":0.10142056151536648,"49":0.007494341049038062,"50":-0.21684810072087318,"51":0.08991630579228868,"52":-0.2039086490041156,"53":-0.011506093971250565,"54":0.1660708659901558,"55":0.09231515101198644,"56":-0.06487702964851788,"57":0.09437267656352581,"58":-0.03632443056478151,"59":-0.17916963505699257,"60":0.0902222571694998,"61":-0.09251671926207422,"62":-0.03394055213373035,"63":-0.1079094970590603,"64":-0.014958081296621822,"65":-0.12021413708814051,"66":-0.1027258863552561,"67":0.06436006244995451,"68":-0.1166585820173988,"69":-0.05163662748074435,"70":0.1664161797451633,"71":-0.023917957874839132,"72":-0.17226514972716173,"73":0.1460106838336487,"74":0.16549673588533556,"75":-0.12872356955025704,"76":0.06856846158044061,"77":0.03663631854789343,"78":0.120733847141389,"79":0.1083461140947832,"80":-0.1011318703999184,"81":-0.1388530277502465,"82":-0.10926718429099566,"83":-0.07527640723619605,"84":0.07304903482844642,"85":0.08049957397918328,"86":0.011137517016067149,"87":0.09224401414095729,"88":0.11629504811177409,"89":0.1293571163088034}},"20":{"bias":-0.12070499417345588,"weights":{"0":0.30400444703886953,"1":0.2504256511908347,"2":0.3139364365880145,"3":0.28044268053425225,"4":0.34480549076932704,"5":0.391412601000386,"6":0.22222608903590935,"7":0.11664571619500705,"8":0.2986264501346899,"9":0.18262348669789139,"10":0.04756170965764656,"11":0.3739000309031533,"12":0.08636990431498497,"13":0.27565009851552585,"14":0.29556554771259835,"15":0.35507302899896026,"16":0.3282743798495028,"17":0.3164592563119978,"18":0.14491404966860327,"19":0.271326079500364,"20":0.3252811921687723,"21":0.07948554538069774,"22":0.2572233214476347,"23":-0.06546991585277424,"24":-0.052294074922891204,"25":0.10114439380911495,"26":0.09776327222650945,"27":0.17623086695891846,"28":-0.051015800182731386,"29":0.2604394165721378,"30":0.2131655516199162,"31":0.10704161229725456,"32":0.1567882365770261,"33":0.19954187488649688,"34":0.22362972443355308,"35":0.0001242407120516422,"36":0.16898026184612186,"37":0.1512196773100454,"38":0.0032799487178731845,"39":0.21160031835807583,"40":0.06880844351326468,"41":0.09052047074899452,"42":-0.12554969743867622,"43":0.09776020052917946,"44":-0.1333863213769346,"45":0.21300718437068258,"46":-0.15662080154352198,"47":-0.054516041683280364,"48":-0.066677110467359,"49":0.07140766795448053,"50":0.16153224100600777,"51":0.13994998885176763,"52":-0.06176837647308138,"53":-0.08942618191687485,"54":0.13537870364237947,"55":0.11312949677576302,"56":0.09924384866451709,"57":-0.03168145253705703,"58":-0.023093032372677996,"59":-0.02676856894584787,"60":0.17788017119915117,"61":0.1510917065156683,"62":-0.05184741256985452,"63":0.10440331049725204,"64":-0.0982834994571965,"65":-0.15143485904079215,"66":0.07202768944495941,"67":0.019432436746444386,"68":0.08190902764562034,"69":0.07864725548026567,"70":0.02223390671143582,"71":-0.21321079141914517,"72":-0.182854679914934,"73":-0.20508616049520745,"74":-0.15602171324219902,"75":0.05132556942582517,"76":0.10282096783126768,"77":0.16473352751465858,"78":0.12024258793209146,"79":-0.12522708545675632,"80":-0.02863221646050821,"81":0.07512509436191958,"82":0.08785067388342033,"83":-0.1589426346800449,"84":-0.04292420630277324,"85":0.02318276381235959,"86":0.14710548914373384,"87":-0.09424792907526576,"88":-0.08842985022759874,"89":-0.1137014186404981}},"21":{"bias":-0.11773093579257582,"weights":{"0":-0.017306732645359427,"1":0.05164770186706857,"2":0.004628161399481869,"3":0.09789689270005043,"4":0.030342120954944714,"5":-0.15870391865522668,"6":-0.003495977058862993,"7":-0.07857370913718506,"8":0.09161471034637395,"9":0.2130659084359511,"10":0.21545775088920238,"11":0.17955298668315334,"12":-0.17865419773814215,"13":-0.1256446178823782,"14":0.0850862004652698,"15":0.2060440839016621,"16":-0.11309159055081865,"17":-0.10687343806938165,"18":0.007597889311466217,"19":0.006177996459924543,"20":0.16447695864159376,"21":0.025725269111716156,"22":0.029210427197230132,"23":0.0005490263336870094,"24":-0.05039097993598595,"25":0.14437146912435658,"26":-0.01786832364894056,"27":-0.00526411399333603,"28":0.046949010392075316,"29":0.15227214234071865,"30":-0.15455610539611617,"31":0.17403394512381698,"32":-0.09238437955251093,"33":0.0054294078606748584,"34":-0.08213140457005282,"35":0.18665731657591372,"36":-0.12147954801295408,"37":-0.07721318299090002,"38":-0.1810490503754212,"39":0.15449044159121678,"40":0.1588405663560304,"41":-0.1965821327530164,"42":-0.12010313613126601,"43":0.012929364470175193,"44":0.06876679575755656,"45":0.03364052557564674,"46":-0.013795589134550132,"47":0.021978941473769654,"48":0.11018059846107615,"49":0.07588869262324485,"50":0.028015461592555004,"51":0.18553516611808415,"52":-0.03152888365909237,"53":-0.19503111408436027,"54":0.17522246509072573,"55":-0.01701155523472231,"56":-0.14327446335186747,"57":0.16074749079200742,"58":0.08367222256329494,"59":-0.024216047894727376,"60":-0.024567758468454347,"61":0.16159713396033806,"62":-0.09486412702289218,"63":-0.035265550896608065,"64":-0.06692450423892031,"65":-0.1905115020637505,"66":0.10773873577162349,"67":-0.19360228361020373,"68":0.09546569712641534,"69":-0.052330677414132463,"70":0.0079653714113521,"71":0.020526955366291035,"72":-0.07415442866397413,"73":0.11215243965749397,"74":-0.16988874542947496,"75":-0.09402276246610804,"76":0.15604805636558755,"77":0.15338079110677466,"78":0.07530110648707697,"79":-0.21367340152041758,"80":0.09589391119253952,"81":0.0017671269368175542,"82":-0.17720284328359642,"83":0.03332879555071857,"84":-0.03808614999409824,"85":0.18071993323008592,"86":0.05983903102227768,"87":0.003474631109772213,"88":-0.04520698389599547,"89":-0.12092057784919238}},"22":{"bias":-0.15062704803339702,"weights":{"0":0.2174920386953077,"1":0.34169184647912176,"2":0.012014278284112829,"3":0.1891994139620465,"4":0.34674899496028233,"5":0.06126327965007713,"6":0.2730056249075274,"7":0.3348914511543946,"8":0.03133230394884902,"9":-0.047815883152664974,"10":0.29507830657457973,"11":0.2714543427647627,"12":0.2653531120653769,"13":0.24974942222456165,"14":-0.07072628157670571,"15":-0.08080231957420005,"16":0.1344362565482892,"17":-0.0045433936173596865,"18":-0.08056359781765517,"19":0.1514335641783293,"20":-0.06618095485422679,"21":0.016348150972540526,"22":-0.07868674400613215,"23":0.22369487285718226,"24":0.21993070394532846,"25":0.2195571342359729,"26":-0.0001363789721151889,"27":-0.0006623790288413699,"28":0.2261052829621258,"29":0.028779052951084943,"30":0.2066144673831582,"31":0.018793133511496824,"32":0.1612172204616434,"33":0.04707378924617072,"34":-0.085062993369583,"35":-0.07139004669150818,"36":0.1891143921375965,"37":0.12625417636751657,"38":-0.028116085766966045,"39":-0.07301974845762257,"40":0.00048541841175236245,"41":0.03464143512510817,"42":0.17923485601351694,"43":-0.14651163494515004,"44":0.061534400501400494,"45":0.018426966430085442,"46":-0.006748348761512046,"47":0.12277862801209295,"48":0.09828129501787342,"49":-0.17578443955297196,"50":0.1609536292494301,"51":0.13872213377718332,"52":-0.1246204716045172,"53":0.15988771980340116,"54":0.0004855279907478848,"55":-0.04807354416013039,"56":0.19402879248032637,"57":0.11857070092508042,"58":-0.023774998214829084,"59":0.04770717451464892,"60":0.039522816333512276,"61":0.06828806702363824,"62":-0.16093055850102905,"63":0.169966065803709,"64":0.19353860841419504,"65":0.13937741054840935,"66":-0.08982637332785653,"67":0.01977257581588812,"68":-0.08817794397917314,"69":-0.12683077805599033,"70":-0.14314682059384498,"71":0.06742612431133638,"72":0.09690953762347233,"73":0.07938262659072012,"74":0.012980977945483951,"75":0.18083728449284459,"76":-0.18952244387506822,"77":-0.09776085189667098,"78":-0.17579619271867186,"79":0.09334073509293273,"80":-0.05362166747040571,"81":0.15588968737249034,"82":0.04080221982174483,"83":-0.2116577160239245,"84":-0.006621843718431969,"85":0.1413752236334766,"86":0.08981020209031994,"87":0.08329460875982311,"88":-0.03562122811723524,"89":-0.15030095897706586}},"23":{"bias":0.13279722399000413,"weights":{"0":0.12574358207390998,"1":0.15421703649379262,"2":0.15377245606598425,"3":0.14579222618171142,"4":0.22037298978414802,"5":0.26858826547955206,"6":0.09836464931079004,"7":-0.0810022046015554,"8":0.15858732397502717,"9":-0.042931795433831826,"10":-0.0427442825104457,"11":0.2059731792551758,"12":0.02335764428170022,"13":0.035457376074592886,"14":0.19178892606498607,"15":0.2383117659503623,"16":-0.01900367429423364,"17":0.24599272536654276,"18":0.20516078744812416,"19":0.2030630768215119,"20":0.14053443969321433,"21":0.22025412617079582,"22":0.008616496424867177,"23":0.21398800914160257,"24":0.23972924999599132,"25":0.22148280429455142,"26":0.04634754532913432,"27":-0.06857680973136042,"28":0.13023507555887354,"29":-0.08822366742304327,"30":-0.06774501619104538,"31":-0.11011639813468635,"32":0.046771351228708714,"33":-0.05811776642779763,"34":0.22726944928672263,"35":0.21272564753125303,"36":-0.10241343475987932,"37":-0.06306257595465398,"38":-0.12051156887951196,"39":-0.11916306960334398,"40":0.023352899710111792,"41":0.15055868248336401,"42":-0.14207619866459223,"43":0.15413469885923106,"44":0.039907826640709194,"45":-0.006521897946784523,"46":-0.16926431149600382,"47":-0.10914486697745848,"48":0.016895693758842666,"49":-0.026321275741481423,"50":0.07585470282367171,"51":-0.03889053204282626,"52":-0.16156244479967002,"53":0.1437013529866245,"54":-0.06356958274510291,"55":-0.06224925337959305,"56":0.02521169064274103,"57":0.0011807794651496257,"58":0.03416805525698657,"59":-0.1686796990251117,"60":0.1307505105237852,"61":-0.20349783966947482,"62":0.17280268925465908,"63":-0.08701331773735804,"64":0.09669415798157187,"65":-0.05595924929786651,"66":0.11222359013818388,"67":0.020847449972317623,"68":-0.09741837197011338,"69":0.17227018656230722,"70":0.1549201439823701,"71":-0.14614311552114642,"72":0.09233841912853069,"73":-0.180634460646959,"74":-0.10757308494361509,"75":-0.15848159694058822,"76":-0.12990803536153755,"77":0.11955124668141502,"78":-0.03039440858052413,"79":0.07125867385884112,"80":0.06733184303226117,"81":-0.13156075637959072,"82":-0.1352346234236805,"83":0.015252651213809568,"84":0.15138881484710495,"85":0.009769361846413504,"86":-0.11969980017626718,"87":-0.2142390774848295,"88":0.014745088625492968,"89":0.000991784707326967}},"24":{"bias":0.11286975761991123,"weights":{"0":0.1022548490125334,"1":-0.09819388844012875,"2":-0.07563095484770099,"3":0.11150799920592905,"4":-0.21436753081551993,"5":-0.0839676636649795,"6":0.03553617566872945,"7":0.09394502109624132,"8":-0.0872311841501845,"9":-0.013959572403062228,"10":-0.04156207921642147,"11":-0.022167182921052412,"12":-0.07372521953257742,"13":-0.1879445890621304,"14":-0.13296197591404957,"15":0.1129963158057205,"16":-0.19842268102153882,"17":0.007903582285706048,"18":0.10960514451449849,"19":0.033548735478576105,"20":0.044564539590476085,"21":-0.05362267035914031,"22":-0.0249209576229042,"23":-0.10649152768024432,"24":0.1449908602080122,"25":0.06850115990108806,"26":-0.11512458274735023,"27":-0.13980956086497975,"28":0.10463830717821962,"29":0.086571814145657,"30":0.07664526133046083,"31":0.14668095501062817,"32":0.09431592675870473,"33":-0.1783482283096671,"34":-0.055327084802559184,"35":-0.21823496201122308,"36":-0.23162038075681243,"37":0.00800772338784795,"38":-0.00942613594083367,"39":-0.162095421552479,"40":0.08484163696355432,"41":0.16175750815809598,"42":0.032988386377732264,"43":-0.22223242467295082,"44":0.14858505744330575,"45":-0.03108794108207752,"46":-0.06207615533031706,"47":0.13401568821543797,"48":0.045757549612047047,"49":-0.06614299233712362,"50":-0.16208567186814526,"51":0.039943350048291304,"52":0.07275382477056339,"53":-0.11079426889610842,"54":-0.13422970822439076,"55":-0.1875567290712763,"56":0.04342491859914257,"57":-0.14176268145114818,"58":-0.2196734897106773,"59":-0.0987716258121074,"60":0.1679334658461281,"61":-0.06423999020007747,"62":0.13701149743694147,"63":0.08706094454672775,"64":-0.019192481198481586,"65":-0.05750955866406186,"66":-0.2105205070464906,"67":-0.03066101465881039,"68":-0.0036604674778485257,"69":0.11336886471629988,"70":0.16412664335346708,"71":-0.10034923553020982,"72":-0.005885502402741573,"73":-0.08526915760678107,"74":0.05231425796289973,"75":-0.06562061249927197,"76":0.145602291285701,"77":-0.08918730934225687,"78":0.01741077187540932,"79":-0.14110592898574306,"80":-0.1483058129818906,"81":-0.21498670518906166,"82":-0.06732270981111386,"83":0.045806078091850895,"84":0.08427552450336871,"85":-0.03744855854364016,"86":0.06408207085842467,"87":-0.2112803671862007,"88":-0.13158052157163172,"89":-0.035561675624429225}},"25":{"bias":0.04608934099075065,"weights":{"0":0.04754064831003426,"1":0.281270806499235,"2":0.16432411294181315,"3":-0.08741454425112807,"4":0.0811323343306646,"5":0.27372245239353354,"6":0.04175270608164116,"7":-0.1157845250038529,"8":0.07830207486249938,"9":0.11105618883571676,"10":-0.02416376418509393,"11":0.08900265132230584,"12":0.14451732537713238,"13":-0.03038982642500538,"14":0.2178625100617923,"15":-0.08487113950532159,"16":0.2004978107327213,"17":-0.09263869244133086,"18":-0.03189700851972472,"19":-0.06016202341947368,"20":0.21153521820586887,"21":0.11338337915853373,"22":0.18891762471073847,"23":0.12964834752479162,"24":0.16217390748175015,"25":0.01642633174849434,"26":-0.05654833076749727,"27":-0.050429074282064286,"28":0.1997096713357642,"29":-0.07220039271320887,"30":-0.10357053131516239,"31":-0.1459785868970536,"32":0.15750064111437231,"33":0.05599056110852712,"34":0.14212641256777264,"35":-0.06250570079486702,"36":-0.01770321758688703,"37":0.2007013914666267,"38":0.05753393064113289,"39":0.1923008918778952,"40":-0.01922797673194005,"41":0.024185762176053734,"42":0.03328523365118783,"43":-0.05439482094506569,"44":-0.12096290476966977,"45":0.2093593903895748,"46":0.21156182767985157,"47":0.1776141577074689,"48":-0.12908484783649046,"49":0.1741907268194939,"50":-0.02499612463632119,"51":-0.1439542114285704,"52":0.041031158047890925,"53":-0.047333870329618624,"54":-0.13549494782682642,"55":-0.16785972753286263,"56":0.11496778092218109,"57":-0.1506534592191012,"58":-0.006457004894558978,"59":0.11190232753874095,"60":-0.12314927104305456,"61":-0.027836284026500017,"62":-0.13772771917830037,"63":0.12210216787668675,"64":-0.07663677813470156,"65":-0.05119714204707366,"66":0.16953349567165882,"67":-0.0730201732831404,"68":0.06419322409551696,"69":-0.20386031017170853,"70":0.060716211119020994,"71":0.1428052627875472,"72":-0.09153163198042635,"73":0.09952944397327942,"74":-0.20178113446092924,"75":-0.071893545240051,"76":0.1570708215821289,"77":-0.05574627197057367,"78":-0.09394091880169725,"79":0.05123633910442821,"80":-0.12255945650744794,"81":-0.029539406049450417,"82":-0.004535397513609817,"83":-0.03371349655515337,"84":-0.18590357732159582,"85":-0.06309693697920109,"86":0.17519050007284281,"87":0.09217903131657398,"88":-0.19404016546360842,"89":-0.00024355623682232837}},"26":{"bias":-0.10953216359374521,"weights":{"0":0.0064720029555083635,"1":-0.026441634019433963,"2":-0.045191064959253104,"3":0.11644354630139586,"4":-0.026195542393226762,"5":0.08495993194494249,"6":0.1653168321426198,"7":-0.043889211327006385,"8":-0.03654625795276069,"9":-0.1206916003564549,"10":0.214100494528433,"11":0.17624938355171202,"12":-0.04092365453420792,"13":0.18967202601623878,"14":-0.11251738387478517,"15":-0.1487525547479882,"16":0.018393676393827416,"17":0.06656191844349024,"18":0.004834940066444852,"19":-0.1469340222926102,"20":0.14672190497709425,"21":-0.10717479341666529,"22":-0.024122077252094077,"23":-0.08987628346202556,"24":-0.09243636413401615,"25":-0.052032032415463184,"26":-0.18818718112611887,"27":-0.00429560790352858,"28":0.1612446847157658,"29":-0.18900204426751374,"30":-0.16493318543940827,"31":0.17689630877726098,"32":-0.16285142714742973,"33":0.04941275885266287,"34":-0.11874542489726651,"35":-0.029506850641329484,"36":-0.1312391662566994,"37":-0.030509141997198685,"38":-0.0944627520214626,"39":0.13293209147715365,"40":-0.14537677426309745,"41":-0.004499681713812142,"42":-0.08535925994305772,"43":-0.04905436218676036,"44":0.19176488006354528,"45":-0.041875665964008185,"46":-0.1009190338707885,"47":0.09847587663067248,"48":0.010312892467231593,"49":0.1636810182714859,"50":-0.15625541606373305,"51":-0.10725632331563097,"52":-0.15939583393952197,"53":-0.049289717890013844,"54":0.06170831574703098,"55":0.18344156199842362,"56":0.17384630030718334,"57":0.046430745314398045,"58":0.08591765744395223,"59":0.0999136390331759,"60":-0.026590646651838544,"61":0.16325070205254794,"62":-0.1914031602465146,"63":-0.14328546670680417,"64":0.10070287374213546,"65":0.060550964127857036,"66":0.14612955175991227,"67":-0.04782974208144486,"68":-0.061506359860276055,"69":-0.18187786165708889,"70":-0.09103109459156891,"71":-0.17796529965626912,"72":-0.17463714316548432,"73":-0.13155723876233205,"74":-0.041212520075139765,"75":0.17660314338227695,"76":0.04759847267148134,"77":-0.0977399796948136,"78":0.01536788327671246,"79":0.19144293345054586,"80":-0.04877972484747922,"81":-0.06823306587256547,"82":-0.0689725083762164,"83":0.05956570565642286,"84":0.14468128890810703,"85":0.14883532783084483,"86":-0.19546728795859472,"87":0.13323594805097716,"88":0.1537278968112532,"89":0.028892810726480936}},"27":{"bias":0.04603541610257302,"weights":{"0":0.07229171402567253,"1":-0.016398835312619667,"2":0.04593234067679368,"3":0.008903603250219768,"4":-0.0555702770301613,"5":0.11502953862257106,"6":-0.1583392166353058,"7":0.05681803024958277,"8":-0.02965810849518402,"9":-0.10376679489767236,"10":-0.027563247053250806,"11":0.21525603503375565,"12":0.19813186385054857,"13":0.162210810737653,"14":0.11493140995139,"15":0.1452201797063914,"16":-0.0992044202702138,"17":0.123355919586288,"18":0.009657478646334509,"19":0.009929813128656819,"20":0.19227894549040697,"21":0.07420615441394011,"22":-0.19210267475219178,"23":-0.03992758854402354,"24":0.08238691862366147,"25":0.010368928066505875,"26":0.11052464893500687,"27":-0.12766671802540983,"28":-0.12356560896486221,"29":0.12367223689579548,"30":-0.1678681315034816,"31":-0.07808076051452527,"32":-0.17346959142610024,"33":-0.1678706146260477,"34":-0.06409194680394231,"35":0.17731238260049478,"36":0.19559815945230286,"37":0.1335828205743239,"38":-0.004063792890131457,"39":0.030772366039542906,"40":-0.020870859084060632,"41":0.025903178951925957,"42":0.16692292907578804,"43":0.026115747409521304,"44":0.10418024246951307,"45":-0.2044128990055007,"46":0.150016585288969,"47":-0.12868445899561945,"48":-0.07079701380559826,"49":-0.06194981425351665,"50":0.03029923701638396,"51":-0.04155506804344908,"52":0.08549938507262607,"53":-0.12159912176382937,"54":-0.05014016864549055,"55":0.09378007703291828,"56":0.030296614563021813,"57":0.15603265284742832,"58":-0.06483230326137167,"59":-0.1383639382419066,"60":-0.20816503091657865,"61":0.05430630276366952,"62":-0.11905243719245762,"63":-0.09381750642494321,"64":0.02163141223905129,"65":0.11807185662903742,"66":-0.09465230007976344,"67":0.1132975901484716,"68":0.13802398565229973,"69":-0.03944954267991733,"70":-0.03521076287328067,"71":-0.17344801694016546,"72":0.08700364387683655,"73":0.10817411199295184,"74":0.14922133001972993,"75":0.02488290451491152,"76":0.0017646162533095204,"77":0.06452637296847319,"78":-0.14056361537230222,"79":0.11861566581493305,"80":-0.10360624279927637,"81":0.05365837601603449,"82":-0.05788480335172149,"83":0.14624570383111735,"84":0.14045127030923776,"85":-0.17399880586174268,"86":0.014303822622091782,"87":0.034680614093392854,"88":0.05470267912355689,"89":0.13704789474761284}},"28":{"bias":0.19340372383299295,"weights":{"0":0.2527956885645441,"1":0.03437234700097385,"2":0.00006347977242396238,"3":0.026746716381848428,"4":0.24486496877738234,"5":0.1563627865979878,"6":-0.06325512455988286,"7":0.25389334407137715,"8":0.03950660583709958,"9":0.23107400398983285,"10":0.22667324139499065,"11":0.05954814234293991,"12":0.10365945249364976,"13":-0.05221089694170794,"14":-0.0411408232199493,"15":0.11702800991651287,"16":0.23680908319436406,"17":0.05033268532102964,"18":-0.09184358760305143,"19":0.21456266409228664,"20":0.1888017279536958,"21":-0.02241906640321114,"22":0.13846010366922207,"23":0.029700669337126943,"24":0.042719904585122655,"25":0.07937679751885185,"26":-0.06490662118820208,"27":0.08119193757017443,"28":0.17496133920315962,"29":-0.09379400046957365,"30":0.1654783998822475,"31":0.16132773120481267,"32":-0.1442816356233082,"33":0.0751332086981032,"34":-0.018432800792649667,"35":0.20994784959886248,"36":-0.1153732679497633,"37":-0.0814794510468179,"38":0.12564246089832332,"39":0.0447013794287818,"40":-0.06480616437784326,"41":0.077149412776986,"42":0.13258164077745857,"43":-0.0880223120980757,"44":0.18648478128248225,"45":-0.11932580912428423,"46":0.006018630607400754,"47":0.20469346789544904,"48":0.17683972098953546,"49":-0.08366503863845193,"50":-0.153848377061123,"51":0.019782760510367474,"52":-0.0016606108815619112,"53":0.10249567211633813,"54":0.09242075220557469,"55":-0.11993025106990608,"56":0.027742606927445825,"57":-0.18169480397462082,"58":0.16742029108380765,"59":0.12252067105024049,"60":-0.12337838968490257,"61":0.018002134869478614,"62":-0.11553607308302707,"63":-0.0716146972913597,"64":-0.03366395629030591,"65":-0.1506424423605838,"66":0.13902231324952125,"67":-0.04158649153841206,"68":0.11304088845274246,"69":-0.03845633128098376,"70":0.0736221855445142,"71":-0.08709093364581363,"72":0.01158179581041432,"73":-0.03470878830530875,"74":-0.08538780412328341,"75":-0.01990915489616052,"76":0.077796578915919,"77":-0.02725315536183135,"78":0.07983151204709432,"79":-0.09044369456382696,"80":0.1902914925401617,"81":-0.14590473746732216,"82":-0.03776173888724558,"83":-0.17229863062799258,"84":0.12982454853221845,"85":-0.20812513425477375,"86":-0.04602233224167984,"87":0.1222788989409055,"88":0.10327888004337239,"89":-0.046109626919346336}},"29":{"bias":-0.09373961324335603,"weights":{"0":0.2503565626590369,"1":0.1662010308518359,"2":0.22528946601592398,"3":-0.004360412563398345,"4":0.011159639256501775,"5":-0.051674815648630516,"6":0.02392895315007949,"7":0.06095632767215622,"8":0.14382047750674545,"9":-0.012462507387862679,"10":0.2876991692863728,"11":-0.09806131525453984,"12":0.04485843375922623,"13":-0.07607480341652649,"14":-0.0354706757981545,"15":0.2796966985792544,"16":0.11051588331599642,"17":0.14163036194169595,"18":-0.06354322162152676,"19":0.12338047594315849,"20":0.100971180996054,"21":-0.11951666122738192,"22":0.1593165512790177,"23":0.1853369890418537,"24":0.042854123814794594,"25":-0.06118032752716705,"26":0.23215679026501554,"27":-0.00949145055130136,"28":-0.10587181611784308,"29":-0.11702957451437467,"30":0.21122438277986869,"31":-0.0034094887844052404,"32":-0.027858449845402637,"33":0.1753026810935709,"34":0.019609096937493548,"35":0.1362589092432058,"36":-0.019412671419594463,"37":0.16297469874572046,"38":-0.15015709005143574,"39":0.1079888212211984,"40":0.19559664348540315,"41":-0.12746065634529982,"42":-0.05147189732903266,"43":0.1309461346196865,"44":-0.016907489746184733,"45":0.20081722483712428,"46":-0.07533106089357196,"47":-0.09768476321301828,"48":0.08006466946388674,"49":0.06377793381902166,"50":0.09278386153538878,"51":0.13747895364345153,"52":0.11548167514307649,"53":-0.1400083812094117,"54":0.05041079570998216,"55":-0.02398076824307689,"56":-0.1514135923734215,"57":-0.06802962818946066,"58":0.042691612840244315,"59":-0.15718057523852275,"60":0.04945727240681213,"61":0.19062349272067813,"62":0.1262824922422623,"63":-0.09063430250133403,"64":0.14845981621776952,"65":0.20167989233737457,"66":0.18971117530975642,"67":0.023489366089616378,"68":-0.1698680190496426,"69":0.1555032912224236,"70":-0.01619466645933517,"71":0.10405357509238514,"72":0.050393895505175514,"73":-0.10793748668958604,"74":-0.045012241954765435,"75":0.13313347975214496,"76":-0.050987784699506086,"77":0.1305059733025837,"78":-0.07594930724029508,"79":-0.15981865700305145,"80":-0.08700044419660319,"81":0.14204697204733652,"82":-0.15666049834379073,"83":-0.10807823508145145,"84":-0.10410812064334,"85":0.11509296383747968,"86":0.09119127805836358,"87":-0.14252785551462083,"88":-0.07559100627682487,"89":0.17253967147350066}},"30":{"bias":-0.06293389248319195,"weights":{"0":-0.09850870200491328,"1":0.10443159944293365,"2":-0.00712573733279773,"3":0.07768162614116916,"4":0.07176372735589256,"5":-0.0819821862892488,"6":0.09147711355735003,"7":-0.20902536565151664,"8":-0.17049066129895954,"9":-0.27461387316539576,"10":0.06381456856045281,"11":-0.2715894269071527,"12":-0.06202286584826298,"13":-0.12437628630328003,"14":-0.23939296343751082,"15":-0.09267004069311865,"16":-0.17654331172875165,"17":0.08420499666141833,"18":0.06464042900337381,"19":-0.06135536126775102,"20":-0.041895818479155356,"21":-0.015550077875450404,"22":0.13508709864513427,"23":-0.024112282188904138,"24":0.01657810512302682,"25":-0.05759019523510769,"26":-0.16038890980426626,"27":0.07305858145590956,"28":0.06897467293978153,"29":-0.056138839179267555,"30":0.024974317518420327,"31":0.14161079060708145,"32":-0.017327253223723322,"33":-0.04988564855871528,"34":0.11912364744710388,"35":0.06697079585356337,"36":-0.17856995927059452,"37":-0.02297657365556018,"38":0.08263053911386246,"39":-0.23378471531510953,"40":-0.11713465217701122,"41":-0.1992520620979254,"42":-0.11611838735015233,"43":-0.009533466504521847,"44":-0.11496730548877307,"45":-0.2065486368334525,"46":-0.025488046879893513,"47":0.011527798160585617,"48":-0.23334164172134425,"49":0.02889298376746781,"50":-0.07816893737144108,"51":-0.17221402456508084,"52":0.13004045207587822,"53":0.16550358832556872,"54":-0.05815915073446931,"55":-0.014419009857354226,"56":-0.1810987330375124,"57":-0.17648438620364143,"58":-0.04151500406969845,"59":-0.16732577256821335,"60":-0.19364840205180506,"61":0.0756452447509555,"62":-0.15393079328652512,"63":0.1006261907476895,"64":0.06746564014823637,"65":0.07346485397945643,"66":0.08720225244410632,"67":-0.18250515489797725,"68":0.07618129833954536,"69":0.08809897207596709,"70":-0.12884972261326852,"71":-0.16069694168732626,"72":-0.08864686450707208,"73":-0.04483079485547089,"74":-0.16744254201482012,"75":0.1693024799644889,"76":-0.020677330005388562,"77":-0.1433755528319067,"78":-0.1208795425101426,"79":-0.19246927522981544,"80":-0.15540215833230261,"81":-0.13744864733258738,"82":0.1171232171228148,"83":-0.019267828542582844,"84":-0.1887854225032251,"85":-0.08412021402565721,"86":0.06036978946445817,"87":0.15378766803834784,"88":-0.05179571254237532,"89":-0.05848122936225683}},"31":{"bias":-0.0020038276306409094,"weights":{"0":-0.10686493374791337,"1":-0.1988375743702211,"2":-0.018724348795557705,"3":-0.0051277658857277015,"4":-0.23164640851700916,"5":0.028903857386452438,"6":-0.059113589143602256,"7":-0.07399426935592406,"8":-0.12153334555329219,"9":-0.18595738874992207,"10":0.08251197686058637,"11":0.05478389880329734,"12":-0.2802933369026899,"13":-0.18043001069772463,"14":0.03922768539952492,"15":0.06612683754605504,"16":-0.18105338028854134,"17":-0.09885785373139028,"18":-0.24181249130345248,"19":0.08324736451429049,"20":-0.20897256540528988,"21":-0.2782094639694132,"22":0.04434792801197495,"23":-0.16001226508421929,"24":0.08968657160556777,"25":-0.2629596344059505,"26":0.11368307859763774,"27":0.04708137336256479,"28":0.1144871643674676,"29":0.06085721909023408,"30":-0.009079207119533956,"31":0.018151230148491505,"32":0.07470358554279406,"33":0.013973314696358683,"34":-0.19463725913808655,"35":-0.14160517065078032,"36":0.05488167688148641,"37":0.0923366335166264,"38":-0.240227853779985,"39":0.02595410019905657,"40":0.13345526696477347,"41":0.004515550515948147,"42":0.11459026089884818,"43":0.06844451935192197,"44":0.001179334452880403,"45":-0.05933092179716309,"46":-0.16760012037688582,"47":-0.213772572254896,"48":0.0817418693000853,"49":-0.09988713117614587,"50":0.005581401256402997,"51":-0.059859798457356325,"52":-0.1679439541994228,"53":-0.0704188264380845,"54":0.13108187430286827,"55":-0.07054796149837693,"56":0.10124561725823701,"57":-0.11934030675524956,"58":-0.05054071708353753,"59":-0.0666035656331665,"60":-0.008122226023819635,"61":-0.03234916433339062,"62":-0.04881365780764463,"63":0.017209124509678195,"64":-0.17653820082829907,"65":-0.05282449094367196,"66":-0.02461187360230481,"67":0.049204561024421035,"68":-0.09448807870965362,"69":-0.14837077010644692,"70":0.004978814159465004,"71":-0.09390724291608972,"72":0.1612759397885299,"73":0.1643355827825137,"74":-0.019045687001023753,"75":-0.050294185478527036,"76":-0.16551286788234024,"77":-0.02301264675718573,"78":-0.15134624132163552,"79":-0.05649757738689206,"80":-0.06616950429640311,"81":-0.17328403005464416,"82":-0.08570230530886062,"83":-0.2193468747942408,"84":0.08742022080995443,"85":-0.07475350138227957,"86":-0.041023643640642704,"87":-0.11020859442442184,"88":0.06025485388661365,"89":-0.1372876607334312}}},{"0":{"bias":-0.4040436395334743,"weights":{"0":-0.5081321261955587,"1":0.7596492317948296,"2":-0.02218429294383858,"3":-0.011257708330719913,"4":-1.53376137070784,"5":-0.3055873289677271,"6":0.4413107121964112,"7":0.43999713270169216,"8":-1.7173651578249218,"9":-0.38610585583959117,"10":-0.2586774712832762,"11":0.8970935703357349,"12":1.083269402442242,"13":0.7971617397763219,"14":0.9425351997521311,"15":1.0792580358514168,"16":1.318717519368021,"17":-0.5465011565948988,"18":2.0137645418823142,"19":0.5276322655899921,"20":-1.331495096023543,"21":-0.19278375015928867,"22":-0.8127174996675008,"23":-0.6714338819501877,"24":0.09584252697257556,"25":-0.4941567083007191,"26":-0.055764450825682634,"27":-0.18134468098740208,"28":-0.6169093130098577,"29":-0.5229683334656958,"30":0.2540662412518231,"31":0.3679885803802174}}},{"0":{"bias":-2.279467917752932,"weights":{"0":-4.885852380781596}}}],"outputLookup":false,"inputLookup":false}